{"learner":{"attributes":{"best_iteration":"29","best_ntree_limit":"30","scikit_learn":"{\"use_label_encoder\": null, \"n_estimators\": 30, \"objective\": \"binary:logistic\", \"max_depth\": 3, \"max_leaves\": null, \"max_bin\": null, \"grow_policy\": null, \"learning_rate\": 0.1, \"verbosity\": null, \"booster\": \"gbtree\", \"tree_method\": null, \"gamma\": 0.03, \"min_child_weight\": null, \"max_delta_step\": null, \"subsample\": 0.8, \"sampling_method\": null, \"colsample_bytree\": 1, \"colsample_bylevel\": null, \"colsample_bynode\": null, \"reg_alpha\": null, \"reg_lambda\": null, \"scale_pos_weight\": null, \"base_score\": null, \"missing\": NaN, \"num_parallel_tree\": null, \"random_state\": 1, \"n_jobs\": null, \"monotone_constraints\": null, \"interaction_constraints\": null, \"importance_type\": null, \"gpu_id\": null, \"validate_parameters\": null, \"predictor\": null, \"enable_categorical\": false, \"feature_types\": null, \"max_cat_to_onehot\": null, \"max_cat_threshold\": null, \"eval_metric\": null, \"early_stopping_rounds\": null, \"callbacks\": null, \"classes_\": [0.0, 1.0], \"n_classes_\": 2, \"evals_result_\": {\"validation_0\": {\"error\": [0.14609571788413098, 0.13161209068010077, 0.13224181360201512, 0.11020151133501259, 0.10894206549118388, 0.09130982367758186, 0.09571788413098237, 0.08942065491183879, 0.08942065491183879, 0.086272040302267, 0.08375314861460957, 0.07556675062972293, 0.07556675062972293, 0.0743073047858942, 0.07304785894206549, 0.07304785894206549, 0.07115869017632241, 0.07178841309823678, 0.07115869017632241, 0.07115869017632241, 0.07115869017632241, 0.07178841309823678, 0.07304785894206549, 0.06926952141057935, 0.06801007556675064, 0.05415617128463476, 0.05541561712846348, 0.0491183879093199, 0.04974811083123426, 0.05226700251889169], \"logloss\": [0.6403292756837321, 0.5996307880437044, 0.5629197930546491, 0.5271372632017964, 0.4978031976247014, 0.46967689021108133, 0.44748412661948794, 0.42807408063778046, 0.4093035015580186, 0.3927597338310267, 0.3761663540484623, 0.36176746285119343, 0.3491332207053374, 0.33604109467896315, 0.32463408434665025, 0.31465336781755204, 0.30587607582266296, 0.29573840986683925, 0.2884460699929849, 0.28229316101604207, 0.27509377327904816, 0.2673044095815204, 0.260967630020317, 0.2566898764540401, 0.25024237418758405, 0.24532343248276026, 0.24005694438114536, 0.23542896088949342, 0.22937089076819325, 0.22421027504738128], \"aucpr\": [0.9084301538862218, 0.9286757823326927, 0.9310741276513304, 0.9575700254000518, 0.9552917686251898, 0.9570363068973932, 0.9567221855659461, 0.9575275029677398, 0.9644138726831624, 0.9641881958351172, 0.9660195891288077, 0.9663289410521511, 0.9675447671882842, 0.9763577154024973, 0.9767848239129854, 0.9778740659102914, 0.9808846761539857, 0.981551811193808, 0.98391221308304, 0.9846833486138198, 0.9860905566636718, 0.9866795148664965, 0.9883080463725384, 0.9891524864132872, 0.9890542162561181, 0.9903755375965607, 0.9912621984380418, 0.9921543036359309, 0.9921923387370749, 0.9920263848664408]}, \"validation_1\": {\"error\": [0.17340676632572777, 0.15735641227380015, 0.16160503540519275, 0.13453973249409915, 0.12777340676632573, 0.11990558615263572, 0.12352478363493312, 0.11801730920535011, 0.11424075531077892, 0.11030684500393391, 0.11235247836349331, 0.1057435090479937, 0.1036978756884343, 0.10464201416207711, 0.1018095987411487, 0.1018095987411487, 0.1011801730920535, 0.0999213217938631, 0.0977183320220299, 0.0997639653815893, 0.0997639653815893, 0.0991345397324941, 0.0994492525570417, 0.0945712037765539, 0.0936270653029111, 0.08214004720692368, 0.08261211644374508, 0.08324154209284028, 0.08355625491738788, 0.08654602675059009], \"logloss\": [0.6443132446752019, 0.6064066917477959, 0.5722620409881853, 0.5395843230721333, 0.512903379882817, 0.487858667024752, 0.4678942681015429, 0.45049305844738385, 0.43309110988321314, 0.41766433969995903, 0.40206119294104664, 0.38888294299365406, 0.37637104969574275, 0.36613616027365886, 0.35554946682802063, 0.34612501108744875, 0.34003807288586485, 0.3306361197030141, 0.3231938992507527, 0.3165485650969246, 0.31084616934920184, 0.3035823579915718, 0.2991368571245042, 0.29477200901280887, 0.28861238118656785, 0.2846135003868869, 0.27901471415776424, 0.27538784414553247, 0.2699226513241193, 0.2649042014677421], \"aucpr\": [0.8866523368438912, 0.9166104315859621, 0.9202627300935342, 0.9446753641584643, 0.9415661844173198, 0.9425167982089532, 0.9423888082570783, 0.9433033280125367, 0.9504466695965222, 0.9508415186094747, 0.9536107591720451, 0.953968047869643, 0.9557354660757265, 0.9617242478140665, 0.962095765469227, 0.9636210817723073, 0.9658233958282713, 0.9663687909558656, 0.9695472000417162, 0.9706091787955597, 0.9722516839670211, 0.9731415971088099, 0.9743936479746569, 0.9754980851753661, 0.9757814517877161, 0.9775622543924656, 0.9787004224525333, 0.9796686025007755, 0.9798356542253538, 0.9798488202249209]}}, \"_estimator_type\": \"classifier\"}"},"feature_names":["spread","ticker_1_rets","ticker_2_rets","z_score","spread_volatility","EOS-USD_volatility","LINK-USD_volatility","coint_p_value","EOS-USD_range","LINK-USD_range","corr","spread_rets"],"feature_types":["float","float","float","float","float","float","float","float","float","float","float","float"],"gradient_booster":{"model":{"gbtree_model_param":{"num_parallel_tree":"1","num_trees":"30","size_leaf_vector":"0"},"tree_info":[0,0,0,0,0,0,0,0,0,0,0,0,0,0,0,0,0,0,0,0,0,0,0,0,0,0,0,0,0,0],"trees":[{"base_weights":[-7.454401E-2,7.548872E-1,-9.9333334E-1,1.2345679E-1,1.7121212E0,-1.6685083E0,3.305785E-2,9.025271E-1,-1.5151515E0,1.9069767E0,7.924528E-1,-1.9389313E0,-9.230769E-1,1.5849056E0,-1.1428572E0],"categories":[],"categories_nodes":[],"categories_segments":[],"categories_sizes":[],"default_left":[1,1,1,1,1,1,1,0,0,0,0,0,0,0,0],"id":0,"left_children":[1,3,5,7,9,11,13,-1,-1,-1,-1,-1,-1,-1,-1],"loss_changes":[2.4099323E2,1.0027457E2,1.04004196E2,1.3062231E2,1.0316177E1,1.6453384E1,1.1221421E2,0E0,0E0,0E0,0E0,0E0,0E0,0E0,0E0],"parents":[2147483647,0,0,1,1,2,2,3,3,4,4,5,5,6,6],"right_children":[2,4,6,8,10,12,14,-1,-1,-1,-1,-1,-1,-1,-1],"split_conditions":[5.881806E-4,-1.5816947E-3,4.2459667E-3,-4.404658E-3,-1.6791496E-4,1.999005E-3,7.1751997E-3,9.025271E-2,-1.5151516E-1,1.9069767E-1,7.9245284E-2,-1.9389313E-1,-9.2307694E-2,1.5849057E-1,-1.1428572E-1],"split_indices":[2,1,1,2,2,1,2,0,0,0,0,0,0,0,0],"split_type":[0,0,0,0,0,0,0,0,0,0,0,0,0,0,0],"sum_hessian":[3.1425E2,1.6525E2,1.49E2,1.0025E2,6.5E1,8.95E1,5.95E1,6.825E1,3.2E1,5.275E1,1.225E1,6.45E1,2.5E1,2.55E1,3.4E1],"tree_param":{"num_deleted":"0","num_feature":"12","num_nodes":"15","size_leaf_vector":"0"}},{"base_weights":[-5.436054E-2,6.847068E-1,-9.018684E-1,1.6784096E-1,1.6895566E0,-1.7790409E0,-2.2086316E-1,6.3827807E-1,-1.4847095E0,1.0606878E0,1.8052533E0,1.3038768E0,-9.684314E-1],"categories":[],"categories_nodes":[],"categories_segments":[],"categories_sizes":[],"default_left":[1,1,1,1,1,0,1,0,0,0,0,0,0],"id":1,"left_children":[1,3,5,7,9,-1,11,-1,-1,-1,-1,-1,-1],"loss_changes":[1.9480338E2,8.6022224E1,8.613267E1,8.711789E1,2.1838226E0,0E0,9.5508644E1,0E0,0E0,0E0,0E0,0E0,0E0],"parents":[2147483647,0,0,1,1,2,2,3,3,4,4,6,6],"right_children":[2,4,6,8,10,-1,12,-1,-1,-1,-1,-1,-1],"split_conditions":[5.881806E-4,-4.9718947E-4,1.999005E-3,-2.6499191E-3,3.949447E-4,-1.779041E-1,4.5182495E-3,6.3827805E-2,-1.4847095E-1,1.0606878E-1,1.8052533E-1,1.3038768E-1,-9.6843146E-2],"split_indices":[2,1,1,2,1,0,2,0,0,0,0,0,0],"split_type":[0,0,0,0,0,0,0,0,0,0,0,0,0],"sum_hessian":[3.0902008E2,1.6517323E2,1.4384685E2,1.0984114E2,5.5332096E1,6.2163914E1,8.1682945E1,8.597897E1,2.3862162E1,1.0177913E1,4.5154182E1,2.6628107E1,5.5054836E1],"tree_param":{"num_deleted":"0","num_feature":"12","num_nodes":"13","size_leaf_vector":"0"}},{"base_weights":[-2.8290983E-2,5.764951E-1,-8.546121E-1,8.153775E-2,1.5198712E0,-1.4938636E0,8.131588E-2,5.879867E-1,-1.4042E0,9.4028616E-1,1.6445678E0,-1.006147E0,-1.6807534E0,1.4223541E0,-8.965519E-1],"categories":[],"categories_nodes":[],"categories_segments":[],"categories_sizes":[],"default_left":[1,1,1,1,1,1,1,0,0,0,0,0,0,0,0],"id":2,"left_children":[1,3,5,7,9,11,13,-1,-1,-1,-1,-1,-1,-1,-1],"loss_changes":[1.586568E2,8.548195E1,8.0382965E1,9.210106E1,3.0091858E0,5.5789948E0,7.3911934E1,0E0,0E0,0E0,0E0,0E0,0E0,0E0,0E0],"parents":[2147483647,0,0,1,1,2,2,3,3,4,4,5,5,6,6],"right_children":[2,4,6,8,10,12,14,-1,-1,-1,-1,-1,-1,-1,-1],"split_conditions":[1.2854802E-3,-4.9718947E-4,4.6512634E-3,-2.664749E-3,7.271706E-4,2.887045E-3,7.820308E-3,5.879867E-2,-1.4042E-1,9.4028614E-2,1.6445678E-1,-1.00614704E-1,-1.6807534E-1,1.4223541E-1,-8.965519E-2],"split_indices":[2,1,1,2,1,2,2,0,0,0,0,0,0,0,0],"split_type":[0,0,0,0,0,0,0,0,0,0,0,0,0,0,0],"sum_hessian":[3.1548804E2,1.8233734E2,1.3315071E2,1.2030423E2,6.20331E1,7.876026E1,5.4390453E1,9.017141E1,3.013282E1,1.2495426E1,4.9537674E1,2.3587868E1,5.5172398E1,2.2744425E1,3.1646027E1],"tree_param":{"num_deleted":"0","num_feature":"12","num_nodes":"15","size_leaf_vector":"0"}},{"base_weights":[1.5749132E-2,7.4134916E-1,-6.325825E-1,7.393946E-2,1.4234066E0,-1.484561E0,1.2665544E-2,8.3813536E-1,-1.6593984E0,1.6205798E0,6.9474685E-1,-8.014672E-1,-1.5693992E0,1.3903068E0,-5.9389144E-1],"categories":[],"categories_nodes":[],"categories_segments":[],"categories_sizes":[],"default_left":[1,1,1,1,1,1,1,0,0,0,0,0,0,0,0],"id":3,"left_children":[1,3,5,7,9,11,13,-1,-1,-1,-1,-1,-1,-1,-1],"loss_changes":[1.4781818E2,6.7386345E1,9.125247E1,1.02049934E2,9.401367E0,2.8875427E0,8.056728E1,0E0,0E0,0E0,0E0,0E0,0E0,0E0,0E0],"parents":[2147483647,0,0,1,1,2,2,3,3,4,4,5,5,6,6],"right_children":[2,4,6,8,10,12,14,-1,-1,-1,-1,-1,-1,-1,-1],"split_conditions":[-5.612108E-4,-3.7389377E-3,1.7780459E-3,-6.4126938E-3,-2.0025105E-3,1.3374588E-4,3.635713E-3,8.381354E-2,-1.6593985E-1,1.6205798E-1,6.947469E-2,-8.014672E-2,-1.5693992E-1,1.3903068E-1,-5.9389144E-2],"split_indices":[2,1,1,2,2,2,2,0,0,0,0,0,0,0,0],"split_type":[0,0,0,0,0,0,0,0,0,0,0,0,0,0,0],"sum_hessian":[3.122228E2,1.4726418E2,1.6495863E2,7.499154E1,7.227263E1,7.053036E1,9.442828E1,5.240405E1,2.2587494E1,5.591747E1,1.6355156E1,8.946079E0,6.1584282E1,2.8471138E1,6.595714E1],"tree_param":{"num_deleted":"0","num_feature":"12","num_nodes":"15","size_leaf_vector":"0"}},{"base_weights":[-2.8526925E-2,5.024347E-1,-7.123176E-1,-1.2803146E-2,1.3204554E0,-1.2970008E0,8.821438E-2,5.659695E-1,-1.2582115E0,1.4998093E0,7.550049E-1,-1.4801565E0,-7.147778E-1,1.1973931E0,-9.521442E-1],"categories":[],"categories_nodes":[],"categories_segments":[],"categories_sizes":[],"default_left":[1,1,1,1,1,1,1,0,0,0,0,0,0,0,0],"id":4,"left_children":[1,3,5,7,9,11,13,-1,-1,-1,-1,-1,-1,-1,-1],"loss_changes":[1.12431206E2,7.349986E1,6.346051E1,7.853131E1,5.701645E0,7.2893066E0,6.813923E1,0E0,0E0,0E0,0E0,0E0,0E0,0E0,0E0],"parents":[2147483647,0,0,1,1,2,2,3,3,4,4,5,5,6,6],"right_children":[2,4,6,8,10,12,14,-1,-1,-1,-1,-1,-1,-1,-1],"split_conditions":[8.2359643E-4,-1.5816947E-3,4.2459667E-3,-4.4080615E-3,-5.465278E-4,2.2222332E-3,7.820308E-3,5.6596953E-2,-1.2582116E-1,1.4998093E-1,7.550049E-2,-1.4801566E-1,-7.1477786E-2,1.1973931E-1,-9.521442E-2],"split_indices":[2,1,1,2,2,1,2,0,0,0,0,0,0,0,0],"split_type":[0,0,0,0,0,0,0,0,0,0,0,0,0,0,0],"sum_hessian":[3.0768527E2,1.7334703E2,1.3433826E2,1.0696101E2,6.638601E1,7.727724E1,5.706102E1,7.339709E1,3.3563923E1,4.914532E1,1.7240688E1,5.761155E1,1.9665691E1,2.7544018E1,2.9517004E1],"tree_param":{"num_deleted":"0","num_feature":"12","num_nodes":"15","size_leaf_vector":"0"}},{"base_weights":[9.091012E-3,5.632094E-1,-5.091295E-1,-6.5688536E-2,1.2036496E0,-1.3845583E0,1.0649611E-1,6.4740705E-1,-1.5354848E0,1.4796804E0,3.89164E-1,-3.263379E-1,-1.3981705E0,1.2893156E0,-5.960433E-1],"categories":[],"categories_nodes":[],"categories_segments":[],"categories_sizes":[],"default_left":[1,1,1,1,1,1,1,0,0,0,0,0,0,0,0],"id":5,"left_children":[1,3,5,7,9,11,13,-1,-1,-1,-1,-1,-1,-1,-1],"loss_changes":[8.503512E1,5.7715725E1,8.262111E1,7.766185E1,1.5375626E1,4.5487976E-1,7.6201195E1,0E0,0E0,0E0,0E0,0E0,0E0,0E0,0E0],"parents":[2147483647,0,0,1,1,2,2,3,3,4,4,5,5,6,6],"right_children":[2,4,6,8,10,12,14,-1,-1,-1,-1,-1,-1,-1,-1],"split_conditions":[-1.6791496E-4,-3.6298204E-3,1.9766106E-3,-6.4180917E-3,-1.5843312E-3,1.45E-2,4.5182495E-3,6.474071E-2,-1.5354848E-1,1.4796804E-1,3.89164E-2,-3.2633793E-2,-1.3981704E-1,1.2893157E-1,-5.9604328E-2],"split_indices":[2,1,1,2,2,9,2,0,0,0,0,0,0,0,0],"split_type":[0,0,0,0,0,0,0,0,0,0,0,0,0,0,0],"sum_hessian":[2.9413052E2,1.4210011E2,1.5203041E2,7.2148926E1,6.9951195E1,6.2254528E1,8.9775894E1,4.8956436E1,2.3192488E1,5.1635216E1,1.831598E1,1.107793E0,6.1146736E1,3.3141872E1,5.6634018E1],"tree_param":{"num_deleted":"0","num_feature":"12","num_nodes":"15","size_leaf_vector":"0"}},{"base_weights":[-1.6466979E-2,4.439237E-1,-5.8170897E-1,-9.066911E-3,1.152536E0,-1.2200822E0,2.2311519E-1,6.902693E-1,-8.5201746E-1,1.3798107E0,5.145995E-1,-7.61288E-1,-1.391877E0,1.1145719E0,-5.71269E-1],"categories":[],"categories_nodes":[],"categories_segments":[],"categories_sizes":[],"default_left":[1,1,1,1,1,1,1,0,0,0,0,0,0,0,0],"id":6,"left_children":[1,3,5,7,9,11,13,-1,-1,-1,-1,-1,-1,-1,-1],"loss_changes":[7.480556E1,5.0869583E1,6.656111E1,5.815142E1,8.249496E0,4.62368E0,4.1650608E1,0E0,0E0,0E0,0E0,0E0,0E0,0E0,0E0],"parents":[2147483647,0,0,1,1,2,2,3,3,4,4,5,5,6,6],"right_children":[2,4,6,8,10,12,14,-1,-1,-1,-1,-1,-1,-1,-1],"split_conditions":[6.8188045E-4,-1.6584159E-3,4.04982E-3,-6.417321E-3,-5.465278E-4,2.3511092E-3,7.2453627E-3,6.902693E-2,-8.520175E-2,1.3798107E-1,5.145995E-2,-7.61288E-2,-1.3918771E-1,1.1145719E-1,-5.71269E-2],"split_indices":[2,1,1,2,2,2,2,0,0,0,0,0,0,0,0],"split_type":[0,0,0,0,0,0,0,0,0,0,0,0,0,0,0],"sum_hessian":[2.8546466E2,1.5744226E2,1.280224E2,9.664669E1,6.0795578E1,7.110619E1,5.6916206E1,5.2922104E1,4.3724583E1,4.396828E1,1.6827295E1,2.0851566E1,5.0254623E1,2.6629526E1,3.0286678E1],"tree_param":{"num_deleted":"0","num_feature":"12","num_nodes":"15","size_leaf_vector":"0"}},{"base_weights":[1.3545873E-2,4.4893032E-1,-4.958355E-1,1.1165384E-1,1.2218289E0,-1.0264144E0,3.7430903E-1,4.2587742E-1,-1.1820037E0,7.287432E-1,1.3258196E0,-1.301727E0,-5.450686E-1,1.488494E0,-4.8972625E-1],"categories":[],"categories_nodes":[],"categories_segments":[],"categories_sizes":[],"default_left":[1,1,1,1,1,1,1,0,0,0,0,0,0,0,0],"id":7,"left_children":[1,3,5,7,9,11,13,-1,-1,-1,-1,-1,-1,-1,-1],"loss_changes":[6.1524128E1,3.8849655E1,5.94128E1,4.3275105E1,1.358429E0,9.85141E0,4.8058178E1,0E0,0E0,0E0,0E0,0E0,0E0,0E0,0E0],"parents":[2147483647,0,0,1,1,2,2,3,3,4,4,5,5,6,6],"right_children":[2,4,6,8,10,12,14,-1,-1,-1,-1,-1,-1,-1,-1],"split_conditions":[6.8188045E-4,-4.9718947E-4,5.713201E-3,-2.7325018E-3,2.0842017E-4,2.2222332E-3,7.85336E-3,4.2587742E-2,-1.1820038E-1,7.287432E-2,1.3258196E-1,-1.3017271E-1,-5.4506864E-2,1.4884941E-1,-4.8972625E-2],"split_indices":[2,1,1,2,1,1,2,0,0,0,0,0,0,0,0],"split_type":[0,0,0,0,0,0,0,0,0,0,0,0,0,0,0],"sum_hessian":[2.75411E2,1.4855501E2,1.2685601E2,1.0422006E2,4.4334953E1,7.8692764E1,4.816325E1,8.439234E1,1.9827723E1,9.116345E0,3.5218605E1,4.8975925E1,2.9716835E1,2.072079E1,2.744246E1],"tree_param":{"num_deleted":"0","num_feature":"12","num_nodes":"15","size_leaf_vector":"0"}},{"base_weights":[-5.2550476E-2,4.1890636E-1,-4.724395E-1,-3.7977058E-1,9.024728E-1,-1.1619418E0,5.3721454E-2,1.549524E-1,-1.5183452E0,1.4248672E0,4.494721E-1,-6.271281E-1,-1.2274445E0,1.3575758E0,-4.1489342E-1],"categories":[],"categories_nodes":[],"categories_segments":[],"categories_sizes":[],"default_left":[1,1,1,1,1,1,1,0,0,0,0,0,0,0,0],"id":8,"left_children":[1,3,5,7,9,11,13,-1,-1,-1,-1,-1,-1,-1,-1],"loss_changes":[5.205647E1,4.8208046E1,5.05012E1,2.91195E1,1.7697678E1,1.3398285E0,4.9328484E1,0E0,0E0,0E0,0E0,0E0,0E0,0E0,0E0],"parents":[2147483647,0,0,1,1,2,2,3,3,4,4,5,5,6,6],"right_children":[2,4,6,8,10,12,14,-1,-1,-1,-1,-1,-1,-1,-1],"split_conditions":[-2.6086197E-4,-6.1696805E-3,2.2222332E-3,-7.423784E-3,-4.6085306E-3,-8.57873E-2,3.6593247E-3,1.5495241E-2,-1.5183453E-1,1.4248672E-1,4.494721E-2,-6.271281E-2,-1.22744456E-1,1.3575758E-1,-4.1489344E-2],"split_indices":[2,1,1,2,2,0,2,0,0,0,0,0,0,0,0],"split_type":[0,0,0,0,0,0,0,0,0,0,0,0,0,0,0],"sum_hessian":[2.6096545E2,1.229349E2,1.3803056E2,4.6442806E1,7.649209E1,5.9219124E1,7.881144E1,3.2189266E1,1.425354E1,3.452868E1,4.1963413E1,7.615402E0,5.160372E1,2.033505E1,5.8476387E1],"tree_param":{"num_deleted":"0","num_feature":"12","num_nodes":"15","size_leaf_vector":"0"}},{"base_weights":[-2.1430328E-2,3.5403338E-1,-5.47253E-1,-3.0479837E-2,1.2076616E0,-1.0187914E0,2.1892607E-1,3.1695712E-1,-1.139846E0,6.930121E-1,1.315031E0,-6.740884E-1,-1.3785361E0,1.3135692E0,-5.222968E-1],"categories":[],"categories_nodes":[],"categories_segments":[],"categories_sizes":[],"default_left":[1,1,1,1,1,1,1,0,0,0,0,0,0,0,0],"id":9,"left_children":[1,3,5,7,9,11,13,-1,-1,-1,-1,-1,-1,-1,-1],"loss_changes":[5.108697E1,4.959999E1,3.9162582E1,4.0863476E1,1.6812973E0,7.366226E0,3.467051E1,0E0,0E0,0E0,0E0,0E0,0E0,0E0,0E0],"parents":[2147483647,0,0,1,1,2,2,3,3,4,4,5,5,6,6],"right_children":[2,4,6,8,10,12,14,-1,-1,-1,-1,-1,-1,-1,-1],"split_conditions":[1.2854802E-3,-4.0900952E-4,5.6930296E-3,-2.7325018E-3,7.271706E-4,4.698109E-3,7.8837145E-3,3.1695712E-2,-1.139846E-1,6.930121E-2,1.315031E-1,-6.7408845E-2,-1.3785361E-1,1.3135692E-1,-5.222968E-2],"split_indices":[2,1,1,2,1,2,2,0,0,0,0,0,0,0,0],"split_type":[0,0,0,0,0,0,0,0,0,0,0,0,0,0,0],"sum_hessian":[2.5678207E2,1.5000075E2,1.0678133E2,1.04081825E2,4.591892E1,6.58963E1,4.088502E1,7.9803E1,2.4278822E1,9.213011E0,3.6705906E1,3.511926E1,3.0777044E1,1.619539E1,2.4689632E1],"tree_param":{"num_deleted":"0","num_feature":"12","num_nodes":"15","size_leaf_vector":"0"}},{"base_weights":[-5.9045024E-2,4.0288037E-1,-4.1683233E-1,-2.4994831E-1,1.1064734E0,-9.9603933E-1,8.06398E-2,3.5106495E-1,-1.295668E0,1.30789E0,5.584192E-1,-5.5937076E-1,-1.2241838E0,1.2021654E0,-4.6338236E-1],"categories":[],"categories_nodes":[],"categories_segments":[],"categories_sizes":[],"default_left":[1,1,1,1,1,1,1,0,0,0,0,0,0,0,0],"id":10,"left_children":[1,3,5,7,9,11,13,-1,-1,-1,-1,-1,-1,-1,-1],"loss_changes":[4.203365E1,5.129634E1,4.1353436E1,3.717883E1,5.191208E0,5.9160843E0,4.813666E1,0E0,0E0,0E0,0E0,0E0,0E0,0E0,0E0],"parents":[2147483647,0,0,1,1,2,2,3,3,4,4,5,5,6,6],"right_children":[2,4,6,8,10,12,14,-1,-1,-1,-1,-1,-1,-1,-1],"split_conditions":[-1.4242231E-3,-4.6924455E-3,2.2714431E-3,-7.423784E-3,-3.248311E-3,8.054669E-4,4.491523E-3,3.5106495E-2,-1.295668E-1,1.3078901E-1,5.5841923E-2,-5.5937078E-2,-1.2241838E-1,1.2021654E-1,-4.6338238E-2],"split_indices":[2,1,1,2,2,2,2,0,0,0,0,0,0,0,0],"split_type":[0,0,0,0,0,0,0,0,0,0,0,0,0,0,0],"sum_hessian":[2.5231549E2,1.1007538E2,1.4224011E2,5.743193E1,5.2643448E1,6.5257996E1,7.698211E1,3.689266E1,2.0539274E1,3.748195E1,1.5161498E1,2.3579206E1,4.167879E1,2.4749714E1,5.22324E1],"tree_param":{"num_deleted":"0","num_feature":"12","num_nodes":"15","size_leaf_vector":"0"}},{"base_weights":[-6.669202E-2,3.7149715E-1,-4.104016E-1,-1.6808732E-1,1.1935037E0,-1.1263713E0,-4.7365997E-2,3.2046843E-1,-1.2052293E0,1.287616E0,6.5624803E-1,-3.8225484E-1,-1.2029673E0,8.681389E-1,-5.004448E-1],"categories":[],"categories_nodes":[],"categories_segments":[],"categories_sizes":[],"default_left":[1,1,1,1,1,1,1,0,0,0,0,0,0,0,0],"id":11,"left_children":[1,3,5,7,9,11,13,-1,-1,-1,-1,-1,-1,-1,-1],"loss_changes":[3.6879635E1,4.797899E1,3.559147E1,3.3782066E1,1.3196678E0,2.167469E0,3.8612335E1,0E0,0E0,0E0,0E0,0E0,0E0,0E0,0E0],"parents":[2147483647,0,0,1,1,2,2,3,3,4,4,5,5,6,6],"right_children":[2,4,6,8,10,12,14,-1,-1,-1,-1,-1,-1,-1,-1],"split_conditions":[-1.1552417E-3,-3.7171575E-3,8.19397E-4,-6.4180917E-3,-2.1982575E-3,2.5E-3,3.6593247E-3,3.2046843E-2,-1.2052293E-1,1.287616E-1,6.56248E-2,-3.8225483E-2,-1.2029673E-1,8.681389E-2,-5.0044484E-2],"split_indices":[2,1,1,2,2,8,2,0,0,0,0,0,0,0,0],"split_type":[0,0,0,0,0,0,0,0,0,0,0,0,0,0,0],"sum_hessian":[2.428564E2,1.0672007E2,1.3613634E2,6.490827E1,4.18118E1,4.509617E1,9.104016E1,4.4593216E1,2.0315056E1,3.4390827E1,7.4209704E0,4.767854E0,4.0328316E1,2.9836182E1,6.1203983E1],"tree_param":{"num_deleted":"0","num_feature":"12","num_nodes":"15","size_leaf_vector":"0"}},{"base_weights":[2.0562494E-2,3.1143036E-1,-4.3506247E-1,4.773651E-2,1.1501973E0,-8.7610525E-1,4.444672E-1,2.7592176E-1,-9.296955E-1,5.8192176E-1,1.2521892E0,-4.289771E-1,-1.2486724E0,1.3643388E0,-5.87823E-1],"categories":[],"categories_nodes":[],"categories_segments":[],"categories_sizes":[],"default_left":[1,1,1,1,1,1,1,0,0,0,0,0,0,0,0],"id":12,"left_children":[1,3,5,7,9,11,13,-1,-1,-1,-1,-1,-1,-1,-1],"loss_changes":[3.1731949E1,3.2259346E1,3.658722E1,2.528085E1,1.2942276E0,9.87365E0,3.102562E1,0E0,0E0,0E0,0E0,0E0,0E0,0E0,0E0],"parents":[2147483647,0,0,1,1,2,2,3,3,4,4,5,5,6,6],"right_children":[2,4,6,8,10,12,14,-1,-1,-1,-1,-1,-1,-1,-1],"split_conditions":[1.749404E-3,7.271706E-4,7.2696377E-3,-1.4518779E-3,1.1191946E-3,4.6950607E-3,1.1224225E-2,2.7592177E-2,-9.296955E-2,5.8192175E-2,1.2521891E-1,-4.2897712E-2,-1.2486724E-1,1.3643388E-1,-5.8782298E-2],"split_indices":[2,1,1,2,1,2,2,0,0,0,0,0,0,0,0],"split_type":[0,0,0,0,0,0,0,0,0,0,0,0,0,0,0],"sum_hessian":[2.3741585E2,1.451009E2,9.231494E1,1.1119882E2,3.390208E1,6.1486332E1,3.0828611E1,9.073427E1,2.0464554E1,6.1791053E0,2.7722975E1,2.8924568E1,3.2561764E1,1.6131872E1,1.4696739E1],"tree_param":{"num_deleted":"0","num_feature":"12","num_nodes":"15","size_leaf_vector":"0"}},{"base_weights":[-5.494917E-3,2.9598692E-1,-4.057971E-1,-8.017367E-1,5.5223036E-1,-9.027427E-1,2.707337E-1,5.3062385E-1,-1.817145E0,1.1789786E0,2.9162735E-1,-4.795926E-1,-1.1743497E0,1.1701978E0,-4.6535584E-1],"categories":[],"categories_nodes":[],"categories_segments":[],"categories_sizes":[],"default_left":[1,1,1,1,1,1,1,0,0,0,0,0,0,0,0],"id":13,"left_children":[1,3,5,7,9,11,13,-1,-1,-1,-1,-1,-1,-1,-1],"loss_changes":[2.7893734E1,3.7529816E1,3.36244E1,3.527457E1,1.721249E1,6.0419884E0,2.8891949E1,0E0,0E0,0E0,0E0,0E0,0E0,0E0,0E0],"parents":[2147483647,0,0,1,1,2,2,3,3,4,4,5,5,6,6],"right_children":[2,4,6,8,10,12,14,-1,-1,-1,-1,-1,-1,-1,-1],"split_conditions":[8.2359643E-4,-1.1861933E-2,5.24547E-3,-1.708839E-2,-7.384943E-3,3.3361278E-3,7.902306E-3,5.3062387E-2,-1.817145E-1,1.1789786E-1,2.9162735E-2,-4.795926E-2,-1.1743497E-1,1.1701979E-1,-4.6535585E-2],"split_indices":[2,1,1,2,2,2,2,0,0,0,0,0,0,0,0],"split_type":[0,0,0,0,0,0,0,0,0,0,0,0,0,0,0],"sum_hessian":[2.291354E2,1.3084898E2,9.828643E1,2.4360785E1,1.064882E2,5.6471172E1,4.181526E1,1.0742508E1,1.3618276E1,3.0239174E1,7.624902E1,2.3157972E1,3.3313198E1,1.8553759E1,2.3261501E1],"tree_param":{"num_deleted":"0","num_feature":"12","num_nodes":"15","size_leaf_vector":"0"}},{"base_weights":[-1.8371534E-2,3.1482545E-1,-3.7446505E-1,-3.5198548E-1,8.420971E-1,-1.0156285E0,3.7872057E-2,6.668673E-2,-1.2516353E0,1.262432E0,4.4457656E-1,-4.0362132E-1,-1.0930107E0,1.019914E0,-4.3567327E-1],"categories":[],"categories_nodes":[],"categories_segments":[],"categories_sizes":[],"default_left":[1,1,1,1,1,1,1,0,0,0,0,0,0,0,0],"id":14,"left_children":[1,3,5,7,9,11,13,-1,-1,-1,-1,-1,-1,-1,-1],"loss_changes":[2.7285892E1,4.2077652E1,2.9421783E1,2.0113876E1,1.0576378E1,1.6206703E0,3.23488E1,0E0,0E0,0E0,0E0,0E0,0E0,0E0,0E0],"parents":[2147483647,0,0,1,1,2,2,3,3,4,4,5,5,6,6],"right_children":[2,4,6,8,10,12,14,-1,-1,-1,-1,-1,-1,-1,-1],"split_conditions":[-8.986743E-5,-5.5041267E-3,2.2222332E-3,-7.049621E-3,-3.930036E-3,-8.796354E-2,4.6950607E-3,6.668673E-3,-1.2516354E-1,1.262432E-1,4.4457655E-2,-4.036213E-2,-1.0930107E-1,1.0199141E-1,-4.3567326E-2],"split_indices":[2,1,1,2,2,0,2,0,0,0,0,0,0,0,0],"split_type":[0,0,0,0,0,0,0,0,0,0,0,0,0,0,0],"sum_hessian":[2.2797736E2,1.1783498E2,1.1014238E2,5.2179245E1,6.565573E1,4.2536762E1,6.760562E1,3.6240017E1,1.5939229E1,3.0854584E1,3.4801144E1,5.4723644E0,3.7064396E1,2.1618736E1,4.5986885E1],"tree_param":{"num_deleted":"0","num_feature":"12","num_nodes":"15","size_leaf_vector":"0"}},{"base_weights":[-4.276712E-2,1.7747486E-1,-4.1963342E-1,-5.6024022E-2,1.2432181E0,-8.5586154E-1,3.966414E-1,3.6781898E-1,-4.7826734E-1,-4.972162E-1,-1.2173841E0,1.4263841E0,-7.338948E-1],"categories":[],"categories_nodes":[],"categories_segments":[],"categories_sizes":[],"default_left":[1,1,1,1,0,1,1,0,0,0,0,0,0],"id":15,"left_children":[1,3,5,7,-1,9,11,-1,-1,-1,-1,-1,-1],"loss_changes":[1.8231161E1,3.460198E1,2.9176012E1,2.0718464E1,0E0,6.2788315E0,3.4677624E1,0E0,0E0,0E0,0E0,0E0,0E0],"parents":[2147483647,0,0,1,1,2,2,3,3,5,5,6,6],"right_children":[2,4,6,8,-1,10,12,-1,-1,-1,-1,-1,-1],"split_conditions":[2.1594297E-3,1.439434E-3,7.2696377E-3,-5.2775256E-3,1.2432181E-1,5.511541E-3,1.0907425E-2,3.67819E-2,-4.7826733E-2,-4.972162E-2,-1.2173841E-1,1.4263842E-1,-7.3389485E-2],"split_indices":[2,1,1,2,0,2,2,0,0,0,0,0,0],"split_type":[0,0,0,0,0,0,0,0,0,0,0,0,0],"sum_hessian":[2.1775056E2,1.3776772E2,7.998285E1,1.1378536E2,2.3982357E1,5.209441E1,2.7888441E1,5.684944E1,5.6935925E1,2.7343685E1,2.4750725E1,1.4457876E1,1.3430565E1],"tree_param":{"num_deleted":"0","num_feature":"12","num_nodes":"13","size_leaf_vector":"0"}},{"base_weights":[-1.4577986E-2,-8.5405385E-1,8.774455E-2,3.0245876E-1,-1.47496E0,8.749095E-1,-1.768224E-1,-8.8040817E-1,1.1999359E0,1.12806335E-1,-1.6623892E0,9.61416E-1,-1.0201648E0,-9.647755E-1,5.480453E-2],"categories":[],"categories_nodes":[],"categories_segments":[],"categories_sizes":[],"default_left":[1,1,1,1,0,1,1,0,0,0,0,0,0,0,0],"id":16,"left_children":[1,3,5,7,9,11,13,-1,-1,-1,-1,-1,-1,-1,-1],"loss_changes":[1.8513657E1,1.7260166E1,4.019122E1,1.0620814E1,4.7721596E0,8.93631E0,2.6465326E1,0E0,0E0,0E0,0E0,0E0,0E0,0E0,0E0],"parents":[2147483647,0,0,1,1,2,2,3,3,4,4,5,5,6,6],"right_children":[2,4,6,8,10,12,14,-1,-1,-1,-1,-1,-1,-1,-1],"split_conditions":[-1.1712384E-2,-1.9799871E-2,-4.404658E-3,-2.2558551E-2,-3.0815983E-2,6.861053E-2,-1.6570293E-3,-8.804082E-2,1.1999359E-1,1.12806335E-2,-1.6623892E-1,9.61416E-2,-1.02016486E-1,-9.647755E-2,5.480453E-3],"split_indices":[1,2,2,1,11,5,1,0,0,0,0,0,0,0,0],"split_type":[0,0,0,0,0,0,0,0,0,0,0,0,0,0,0],"sum_hessian":[2.1366006E2,2.2415104E1,1.9124496E2,8.009437E0,1.4405667E1,4.7528038E1,1.4371692E2,3.46354E0,4.5458965E0,1.5630194E0,1.2842648E1,4.5924355E1,1.6036826E0,3.1930363E1,1.1178656E2],"tree_param":{"num_deleted":"0","num_feature":"12","num_nodes":"15","size_leaf_vector":"0"}},{"base_weights":[-3.3695217E-2,2.6981077E-1,-3.0875477E-1,-1.5357763E-1,1.0242547E0,-6.2990695E-1,5.558516E-1,2.6323196E-1,-1.0129434E0,1.1567461E0,4.4775876E-1,-3.627902E-1,-1.2402673E0,1.3645409E0,-4.751405E-1],"categories":[],"categories_nodes":[],"categories_segments":[],"categories_sizes":[],"default_left":[1,1,1,1,1,1,1,0,0,0,0,0,0,0,0],"id":17,"left_children":[1,3,5,7,9,11,13,-1,-1,-1,-1,-1,-1,-1,-1],"loss_changes":[1.742126E1,3.1866476E1,3.073119E1,2.3354168E1,2.2175941E0,1.2633652E1,2.5798555E1,0E0,0E0,0E0,0E0,0E0,0E0,0E0,0E0],"parents":[2147483647,0,0,1,1,2,2,3,3,4,4,5,5,6,6],"right_children":[2,4,6,8,10,12,14,-1,-1,-1,-1,-1,-1,-1,-1],"split_conditions":[-8.0190325E-4,-3.371275E-3,7.2696377E-3,-6.4180917E-3,-1.7992835E-3,5.517851E-3,1.124514E-2,2.6323197E-2,-1.0129434E-1,1.15674615E-1,4.4775877E-2,-3.627902E-2,-1.2402673E-1,1.3645409E-1,-4.751405E-2],"split_indices":[2,1,1,2,2,2,2,0,0,0,0,0,0,0,0],"split_type":[0,0,0,0,0,0,0,0,0,0,0,0,0,0,0],"sum_hessian":[2.066844E2,9.8270226E1,1.0841417E2,6.3455757E1,3.4814472E1,7.9249084E1,2.9165083E1,4.31977E1,2.0258059E1,2.7490122E1,7.3243475E0,5.6233547E1,2.301554E1,1.6163353E1,1.300173E1],"tree_param":{"num_deleted":"0","num_feature":"12","num_nodes":"15","size_leaf_vector":"0"}},{"base_weights":[-2.2853937E-2,-1.09449916E-1,6.694633E-1,1.4809531E-1,-6.923829E-1,1.4923137E0,-5.8620584E-1,-3.1526157E-1,6.4107484E-1,-1.0730563E0,-2.549406E-1,1.987601E-1,1.6451558E0,7.806573E-1,-9.34024E-1],"categories":[],"categories_nodes":[],"categories_segments":[],"categories_sizes":[],"default_left":[1,1,1,1,1,1,1,0,0,0,0,0,0,0,0],"id":18,"left_children":[1,3,5,7,9,11,13,-1,-1,-1,-1,-1,-1,-1,-1],"loss_changes":[1.2265631E1,2.7369278E1,2.4380894E1,2.9164116E1,9.0232525E0,2.4460354E0,5.3523083E0,0E0,0E0,0E0,0E0,0E0,0E0,0E0,0E0],"parents":[2147483647,0,0,1,1,2,2,3,3,4,4,5,5,6,6],"right_children":[2,4,6,8,10,12,14,-1,-1,-1,-1,-1,-1,-1,-1],"split_conditions":[9.280555E-3,2.1594297E-3,1.28995385E-2,-3.3644545E-3,3.3860088E-3,1.25E-2,7.817581E-2,-3.152616E-2,6.4107485E-2,-1.0730564E-1,-2.549406E-2,1.987601E-2,1.6451558E-1,7.806573E-2,-9.34024E-2],"split_indices":[1,2,2,1,1,8,6,0,0,0,0,0,0,0,0],"split_type":[0,0,0,0,0,0,0,0,0,0,0,0,0,0,0],"sum_hessian":[2.0236905E2,1.8061891E2,2.175015E1,1.25789764E2,5.482914E1,1.3025784E1,8.724366E0,6.502889E1,6.076087E1,2.8539934E1,2.6289206E1,1.6195353E0,1.1406248E1,1.517281E0,7.207085E0],"tree_param":{"num_deleted":"0","num_feature":"12","num_nodes":"15","size_leaf_vector":"0"}},{"base_weights":[-6.526552E-3,-6.9524154E-2,1.1270492E0,1.2649214E-1,-6.253994E-1,1.8015257E0,-3.169887E-1,-6.4380065E-2,1.1365774E0,-1.0929646E0,-1.5296382E-1,9.3305594E-1,2.1768196E0,7.354525E-1,-9.085477E-1],"categories":[],"categories_nodes":[],"categories_segments":[],"categories_sizes":[],"default_left":[1,1,1,1,1,1,1,0,0,0,0,0,0,0,0],"id":19,"left_children":[1,3,5,7,9,11,13,-1,-1,-1,-1,-1,-1,-1,-1],"loss_changes":[1.4711044E1,2.1332708E1,1.1134677E1,2.8036163E1,1.1102692E1,4.272499E-1,3.3474205E0,0E0,0E0,0E0,0E0,0E0,0E0,0E0,0E0],"parents":[2147483647,0,0,1,1,2,2,3,3,4,4,5,5,6,6],"right_children":[2,4,6,8,10,12,14,-1,-1,-1,-1,-1,-1,-1,-1],"split_conditions":[1.3922304E-2,3.7015607E-3,1.9424189E-2,2.0671973E-3,5.24547E-3,8.211491E-3,1.6591302E-1,-6.4380066E-3,1.13657735E-1,-1.0929646E-1,-1.5296382E-2,9.3305595E-2,2.1768196E-1,7.354525E-2,-9.085477E-2],"split_indices":[1,2,2,1,1,2,7,0,0,0,0,0,0,0,0],"split_type":[0,0,0,0,0,0,0,0,0,0,0,0,0,0,0],"sum_hessian":[2.0390358E2,1.9405765E2,9.845937E0,1.4403836E2,5.0019283E1,6.5425177E0,3.3034189E0,1.2193332E2,2.2105042E1,2.4479086E1,2.55402E1,3.026071E0,3.5164466E0,1.1011397E0,2.2022793E0],"tree_param":{"num_deleted":"0","num_feature":"12","num_nodes":"15","size_leaf_vector":"0"}},{"base_weights":[-5.811556E-3,-7.317899E-1,8.727395E-2,1.0419366E0,-1.2826194E0,8.901993E-1,-1.335743E-1,1.1604319E0,2.7018017E-1,-5.8017135E-1,-1.7743789E0,8.158011E-2,1.1172779E0,-1.1336808E0,3.9479014E-2],"categories":[],"categories_nodes":[],"categories_segments":[],"categories_sizes":[],"default_left":[1,1,1,1,1,1,1,0,0,0,0,0,0,0,0],"id":20,"left_children":[1,3,5,7,9,11,13,-1,-1,-1,-1,-1,-1,-1,-1],"loss_changes":[1.3079065E1,2.282571E1,3.0547878E1,2.1355772E-1,4.9227753E0,6.729986E0,2.3487715E1,0E0,0E0,0E0,0E0,0E0,0E0,0E0,0E0],"parents":[2147483647,0,0,1,1,2,2,3,3,4,4,5,5,6,6],"right_children":[2,4,6,8,10,12,14,-1,-1,-1,-1,-1,-1,-1,-1],"split_conditions":[-1.1838008E-2,-2.4163099E-2,-5.2775256E-3,1.9127838E-2,-1.3653727E-2,-8.438402E-3,-3.4364667E-3,1.1604319E-1,2.7018016E-2,-5.8017135E-2,-1.7743789E-1,8.158011E-3,1.1172779E-1,-1.1336809E-1,3.9479015E-3],"split_indices":[1,2,2,4,2,1,1,0,0,0,0,0,0,0,0],"split_type":[0,0,0,0,0,0,0,0,0,0,0,0,0,0,0],"sum_hessian":[1.9159505E2,2.0994722E1,1.7060033E2,4.763665E0,1.6231058E1,3.6148064E1,1.3445227E2,3.6930158E0,1.0706493E0,7.581352E0,8.649706E0,8.223545E0,2.7924517E1,1.9014275E1,1.1543799E2],"tree_param":{"num_deleted":"0","num_feature":"12","num_nodes":"15","size_leaf_vector":"0"}},{"base_weights":[7.559224E-3,2.9761794E-1,-2.5794506E-1,-2.5019398E-1,8.3658755E-1,-9.3173057E-1,7.781043E-2,1.457608E-1,-1.1371272E0,1.1211491E0,4.0647167E-1,-1.15094736E-1,-1.0376915E0,7.8484577E-1,-3.0747962E-1],"categories":[],"categories_nodes":[],"categories_segments":[],"categories_sizes":[],"default_left":[1,1,1,1,1,1,1,0,0,0,0,0,0,0,0],"id":21,"left_children":[1,3,5,7,9,11,13,-1,-1,-1,-1,-1,-1,-1,-1],"loss_changes":[1.5099248E1,2.7870811E1,2.3233643E1,1.6753017E1,5.352501E0,2.8336086E0,1.9106829E1,0E0,0E0,0E0,0E0,0E0,0E0,0E0,0E0],"parents":[2147483647,0,0,1,1,2,2,3,3,4,4,5,5,6,6],"right_children":[2,4,6,8,10,12,14,-1,-1,-1,-1,-1,-1,-1,-1],"split_conditions":[-7.223353E-4,-5.5041267E-3,1.1286811E-3,-7.423784E-3,-3.493353E-3,-8.57873E-2,4.5182495E-3,1.457608E-2,-1.1371272E-1,1.1211491E-1,4.0647168E-2,-1.1509473E-2,-1.03769146E-1,7.848458E-2,-3.0747963E-2],"split_indices":[2,1,1,2,2,0,2,0,0,0,0,0,0,0,0],"split_type":[0,0,0,0,0,0,0,0,0,0,0,0,0,0,0],"sum_hessian":[1.9406715E2,9.268714E1,1.01380005E2,4.6232227E1,4.6454914E1,3.3126854E1,6.825315E1,3.2540695E1,1.369153E1,2.699115E1,1.9463764E1,4.044242E0,2.9082613E1,2.3708782E1,4.454437E1],"tree_param":{"num_deleted":"0","num_feature":"12","num_nodes":"15","size_leaf_vector":"0"}},{"base_weights":[3.901888E-3,-5.897954E-1,1.0911934E-1,3.6758336E-1,-1.1607695E0,9.8728454E-1,-5.794017E-2,9.5514464E-1,-1.450418E0,3.6058164E-1,-1.2720236E0,1.1108322E0,7.0929356E-2,-9.8856825E-1,9.247632E-2],"categories":[],"categories_nodes":[],"categories_segments":[],"categories_sizes":[],"default_left":[1,1,1,1,0,1,1,0,0,0,0,0,0,0,0],"id":22,"left_children":[1,3,5,7,9,11,13,-1,-1,-1,-1,-1,-1,-1,-1],"loss_changes":[1.1985431E1,1.6216602E1,2.3963139E1,1.3723734E1,3.561945E0,2.8761005E0,1.9388094E1,0E0,0E0,0E0,0E0,0E0,0E0,0E0,0E0],"parents":[2147483647,0,0,1,1,2,2,3,3,4,4,5,5,6,6],"right_children":[2,4,6,8,10,12,14,-1,-1,-1,-1,-1,-1,-1,-1],"split_conditions":[-9.445172E-3,-1.8812448E-2,-5.959173E-3,6.1499998E-2,-4.096865E-2,5.9186168E-2,-3.7262272E-3,9.551447E-2,-1.4504181E-1,3.6058165E-2,-1.2720236E-1,1.11083224E-1,7.0929355E-3,-9.885683E-2,9.247633E-3],"split_indices":[1,2,2,8,11,0,1,0,0,0,0,0,0,0,0],"split_type":[0,0,0,0,0,0,0,0,0,0,0,0,0,0,0],"sum_hessian":[1.8983696E2,2.7885494E1,1.6195146E2,1.0550761E1,1.7334734E1,2.510016E1,1.368513E2,8.332418E0,2.2183428E0,1.02856E0,1.6306173E1,2.1931072E1,3.1690881E0,1.8266169E1,1.1858514E2],"tree_param":{"num_deleted":"0","num_feature":"12","num_nodes":"15","size_leaf_vector":"0"}},{"base_weights":[1.5154174E-2,-4.382205E-2,1.0252788E0,5.662637E-2,-1.1279488E0,1.757288E0,-3.4773374E-1,-6.1435435E-2,8.622494E-1,-1.1823771E0,-1.8179455E-1,7.13412E-1,-9.0587443E-1],"categories":[],"categories_nodes":[],"categories_segments":[],"categories_sizes":[],"default_left":[1,1,1,1,1,0,1,0,0,0,0,0,0],"id":23,"left_children":[1,3,5,7,9,-1,11,-1,-1,-1,-1,-1,-1],"loss_changes":[1.1447296E1,1.9861788E1,1.1264144E1,1.596895E1,5.8140755E-1,0E0,3.323737E0,0E0,0E0,0E0,0E0,0E0,0E0],"parents":[2147483647,0,0,1,1,2,2,3,3,4,4,6,6],"right_children":[2,4,6,8,10,-1,12,-1,-1,-1,-1,-1,-1],"split_conditions":[1.383176E-2,9.579935E-3,1.9424189E-2,5.445272E-3,4.42155E-2,1.757288E-1,2.4375807E-1,-6.1435434E-3,8.6224936E-2,-1.1823771E-1,-1.8179456E-2,7.13412E-2,-9.0587445E-2],"split_indices":[1,2,2,1,5,0,7,0,0,0,0,0,0],"split_type":[0,0,0,0,0,0,0,0,0,0,0,0,0],"sum_hessian":[1.9040048E2,1.8080101E2,9.599467E0,1.6633704E2,1.4463984E1,6.0787563E0,3.5207114E0,1.4588216E2,2.045488E1,1.3441106E1,1.0228778E0,1.1176411E0,2.4030702E0],"tree_param":{"num_deleted":"0","num_feature":"12","num_nodes":"13","size_leaf_vector":"0"}},{"base_weights":[1.7730234E-3,2.2426805E-1,-3.280481E-1,-1.070679E-2,9.578184E-1,-7.809202E-1,2.8032196E-1,2.3003806E-1,-9.569854E-1,1.0090387E0,2.2270001E-1,-1.0778041E0,-4.6487492E-1,9.010121E-1,-3.485446E-1],"categories":[],"categories_nodes":[],"categories_segments":[],"categories_sizes":[],"default_left":[1,1,1,1,1,1,1,0,0,0,0,0,0,0,0],"id":24,"left_children":[1,3,5,7,9,11,13,-1,-1,-1,-1,-1,-1,-1,-1],"loss_changes":[1.3528383E1,1.898476E1,2.0680332E1,1.943934E1,7.8131294E-1,3.5184174E0,1.297176E1,0E0,0E0,0E0,0E0,0E0,0E0,0E0,0E0],"parents":[2147483647,0,0,1,1,2,2,3,3,4,4,5,5,6,6],"right_children":[2,4,6,8,10,12,14,-1,-1,-1,-1,-1,-1,-1,-1],"split_conditions":[1.2854802E-3,-4.0900952E-4,5.6930296E-3,-2.401255E-3,3.764964E-2,2.072181E-3,9.806665E-3,2.3003807E-2,-9.569854E-2,1.0090387E-1,2.2270001E-2,-1.0778041E-1,-4.648749E-2,9.010121E-2,-3.485446E-2],"split_indices":[2,1,1,2,5,1,2,0,0,0,0,0,0,0,0],"split_type":[0,0,0,0,0,0,0,0,0,0,0,0,0,0,0],"sum_hessian":[1.8234915E2,1.0908273E2,7.326642E1,8.3364395E1,2.5718334E1,4.183828E1,3.1428139E1,6.706033E1,1.6304066E1,2.3694752E1,2.0235822E0,2.0330297E1,2.1507982E1,1.5599099E1,1.5829039E1],"tree_param":{"num_deleted":"0","num_feature":"12","num_nodes":"15","size_leaf_vector":"0"}},{"base_weights":[8.080905E-3,-6.2190974E-1,8.986064E-2,7.2063243E-1,-1.1392206E0,1.2148368E0,-3.0427696E-2,1.1126525E0,-5.949043E-1,2.0415868E-1,-1.3930197E0,-1.0225052E0,7.580156E-2],"categories":[],"categories_nodes":[],"categories_segments":[],"categories_sizes":[],"default_left":[1,1,1,1,0,0,1,0,0,0,0,0,0],"id":25,"left_children":[1,3,5,7,9,-1,11,-1,-1,-1,-1,-1,-1],"loss_changes":[9.403977E0,1.5387309E1,2.1887432E1,3.986353E0,5.5783997E0,0E0,1.5553556E1,0E0,0E0,0E0,0E0,0E0,0E0],"parents":[2147483647,0,0,1,1,2,2,3,3,4,4,6,6],"right_children":[2,4,6,8,10,-1,12,-1,-1,-1,-1,-1,-1],"split_conditions":[-1.1861933E-2,-2.4163099E-2,-9.22062E-3,6.55E-2,-2.4250522E-2,1.2148368E-1,-6.028326E-3,1.1126526E-1,-5.949043E-2,2.0415869E-2,-1.3930197E-1,-1.0225052E-1,7.580156E-3],"split_indices":[1,2,2,8,11,0,1,0,0,0,0,0,0],"split_type":[0,0,0,0,0,0,0,0,0,0,0,0,0],"sum_hessian":[1.8044426E2,1.9973513E1,1.6047075E2,5.446233E0,1.4527279E1,1.4621962E1,1.4584879E2,4.314705E0,1.1315283E0,2.3395329E0,1.2187746E1,1.3272369E1,1.3257642E2],"tree_param":{"num_deleted":"0","num_feature":"12","num_nodes":"13","size_leaf_vector":"0"}},{"base_weights":[7.7230055E-3,-8.0873065E-2,7.19227E-1,9.91917E-2,-8.7535954E-1,1.3585036E0,-1.9754294E-1,-7.745097E-2,8.166425E-1,-4.7824365E-1,-1.183527E0,4.226259E-1,1.4939021E0,-1.0239958E0,6.2034976E-1],"categories":[],"categories_nodes":[],"categories_segments":[],"categories_sizes":[],"default_left":[1,1,1,1,1,1,1,0,0,0,0,0,0,0,0],"id":26,"left_children":[1,3,5,7,9,11,13,-1,-1,-1,-1,-1,-1,-1,-1],"loss_changes":[1.1405417E1,2.3116043E1,1.2009627E1,1.6808659E1,3.086361E0,8.803959E-1,6.7888494E0,0E0,0E0,0E0,0E0,0E0,0E0,0E0,0E0],"parents":[2147483647,0,0,1,1,2,2,3,3,4,4,5,5,6,6],"right_children":[2,4,6,8,10,12,14,-1,-1,-1,-1,-1,-1,-1,-1],"split_conditions":[9.120804E-3,4.4924202E-3,1.28995385E-2,1.4489102E-3,7.282695E-3,1.25E-2,1.561629E-2,-7.745097E-3,8.166426E-2,-4.7824364E-2,-1.18352704E-1,4.226259E-2,1.493902E-1,-1.0239958E-1,6.2034976E-2],"split_indices":[1,2,2,1,2,8,1,0,0,0,0,0,0,0,0],"split_type":[0,0,0,0,0,0,0,0,0,0,0,0,0,0,0],"sum_hessian":[1.7901091E2,1.59977E2,1.9033909E1,1.31132E2,2.8844997E1,1.0930253E1,8.103656E0,1.0594056E2,2.5191446E1,1.3718603E1,1.5126394E1,1.9023709E0,9.027883E0,3.9053946E0,4.1982613E0],"tree_param":{"num_deleted":"0","num_feature":"12","num_nodes":"15","size_leaf_vector":"0"}},{"base_weights":[-1.5262606E-2,-6.423023E-1,7.01019E-2,5.3473055E-1,-1.3450664E0,1.1799853E0,-4.907402E-2,1.0388904E0,-1.4076741E0,-1.4534242E0,-3.9746173E-2,-9.183864E-1,4.7324352E-2],"categories":[],"categories_nodes":[],"categories_segments":[],"categories_sizes":[],"default_left":[1,1,1,1,1,0,1,0,0,0,0,0,0],"id":27,"left_children":[1,3,5,7,9,-1,11,-1,-1,-1,-1,-1,-1],"loss_changes":[9.335311E0,1.8003704E1,2.0383663E1,9.813179E0,1.8330669E0,0E0,1.1752609E1,0E0,0E0,0E0,0E0,0E0,0E0],"parents":[2147483647,0,0,1,1,2,2,3,3,4,4,6,6],"right_children":[2,4,6,8,10,-1,12,-1,-1,-1,-1,-1,-1],"split_conditions":[-1.1794111E-2,-1.9799871E-2,-9.230988E-3,6.2E-2,9.639628E-1,1.1799853E-1,-5.8482625E-3,1.0388904E-1,-1.4076741E-1,-1.4534242E-1,-3.9746175E-3,-9.183864E-2,4.732435E-3],"split_indices":[1,2,2,8,10,0,1,0,0,0,0,0,0],"split_type":[0,0,0,0,0,0,0,0,0,0,0,0,0],"sum_hessian":[1.725628E2,1.9895731E1,1.5266708E2,7.527429E0,1.2368301E1,1.394028E1,1.387268E2,6.3455625E0,1.1818666E0,1.1315511E1,1.0527905E0,1.2996697E1,1.257301E2],"tree_param":{"num_deleted":"0","num_feature":"12","num_nodes":"13","size_leaf_vector":"0"}},{"base_weights":[2.3256782E-2,2.816747E-1,-1.7110422E-1,-7.740014E-2,1.0359592E0,-7.6142514E-1,1.6318482E-1,2.0639043E-1,-1.0175196E0,1.2359605E-1,1.0706502E0,-3.2383874E-1,-1.0527463E0,1.004251E0,-1.5392902E-1],"categories":[],"categories_nodes":[],"categories_segments":[],"categories_sizes":[],"default_left":[1,1,1,1,1,1,1,0,0,0,0,0,0,0,0],"id":28,"left_children":[1,3,5,7,9,11,13,-1,-1,-1,-1,-1,-1,-1,-1],"loss_changes":[8.707399E0,2.0226759E1,1.9664495E1,1.3903287E1,6.291771E-1,4.2453003E0,1.7235666E1,0E0,0E0,0E0,0E0,0E0,0E0,0E0,0E0],"parents":[2147483647,0,0,1,1,2,2,3,3,4,4,5,5,6,6],"right_children":[2,4,6,8,10,12,14,-1,-1,-1,-1,-1,-1,-1,-1],"split_conditions":[-1.8048792E-3,-3.7175012E-3,1.1557355E-3,-5.7676467E-3,-2.3064454E0,1.3449223E-4,3.418828E-3,2.0639043E-2,-1.0175196E-1,1.2359605E-2,1.0706502E-1,-3.2383874E-2,-1.0527463E-1,1.004251E-1,-1.5392902E-2],"split_indices":[2,1,1,2,3,2,2,0,0,0,0,0,0,0,0],"split_type":[0,0,0,0,0,0,0,0,0,0,0,0,0,0,0],"sum_hessian":[1.7140352E2,7.3384254E1,9.8019264E1,5.0324715E1,2.3059544E1,3.4976513E1,6.3042755E1,3.9255314E1,1.1069401E1,1.0118165E0,2.2047726E1,1.48229475E1,2.0153564E1,1.6668041E1,4.6374714E1],"tree_param":{"num_deleted":"0","num_feature":"12","num_nodes":"15","size_leaf_vector":"0"}},{"base_weights":[1.3217885E-2,2.7155545E-1,-1.8793443E-1,-7.0654474E-2,1.0126308E0,-1.1375334E0,4.904902E-2,2.1652757E-1,-1.0441022E0,1.2359845E-2,1.0597703E0,6.522975E-1,-1.5640347E-1],"categories":[],"categories_nodes":[],"categories_segments":[],"categories_sizes":[],"default_left":[1,1,1,1,1,0,1,0,0,0,0,0,0],"id":29,"left_children":[1,3,5,7,9,-1,11,-1,-1,-1,-1,-1,-1],"loss_changes":[8.889056E0,1.9057207E1,2.1707308E1,1.480467E1,1.1051044E0,0E0,9.763728E0,0E0,0E0,0E0,0E0,0E0,0E0],"parents":[2147483647,0,0,1,1,2,2,3,3,4,4,6,6],"right_children":[2,4,6,8,10,-1,12,-1,-1,-1,-1,-1,-1],"split_conditions":[-1.510177E-3,-3.7175012E-3,-2.055921E-4,-5.7676467E-3,4.000271E-3,-1.1375334E-1,2.165005E-3,2.1652756E-2,-1.0441022E-1,1.2359846E-3,1.05977036E-1,6.522975E-2,-1.5640346E-2],"split_indices":[2,1,1,2,5,0,2,0,0,0,0,0,0],"split_type":[0,0,0,0,0,0,0,0,0,0,0,0,0],"sum_hessian":[1.6907578E2,7.386361E1,9.521217E1,5.1148964E1,2.2714643E1,1.8256767E1,7.695541E1,4.0097233E1,1.1051733E1,1.0790972E0,2.1635546E1,1.8998165E1,5.795724E1],"tree_param":{"num_deleted":"0","num_feature":"12","num_nodes":"13","size_leaf_vector":"0"}}]},"name":"gbtree"},"learner_model_param":{"base_score":"5E-1","boost_from_average":"1","num_class":"0","num_feature":"12","num_target":"1"},"objective":{"name":"binary:logistic","reg_loss_param":{"scale_pos_weight":"1"}}},"version":[1,7,4]}