{"learner":{"attributes":{"best_iteration":"29","best_ntree_limit":"30","scikit_learn":"{\"use_label_encoder\": null, \"n_estimators\": 30, \"objective\": \"binary:logistic\", \"max_depth\": 3, \"max_leaves\": null, \"max_bin\": null, \"grow_policy\": null, \"learning_rate\": 0.1, \"verbosity\": null, \"booster\": \"gbtree\", \"tree_method\": null, \"gamma\": 0.03, \"min_child_weight\": null, \"max_delta_step\": null, \"subsample\": 0.8, \"sampling_method\": null, \"colsample_bytree\": 1, \"colsample_bylevel\": null, \"colsample_bynode\": null, \"reg_alpha\": null, \"reg_lambda\": null, \"scale_pos_weight\": null, \"base_score\": null, \"missing\": NaN, \"num_parallel_tree\": null, \"random_state\": 1, \"n_jobs\": null, \"monotone_constraints\": null, \"interaction_constraints\": null, \"importance_type\": null, \"gpu_id\": null, \"validate_parameters\": null, \"predictor\": null, \"enable_categorical\": false, \"feature_types\": null, \"max_cat_to_onehot\": null, \"max_cat_threshold\": null, \"eval_metric\": null, \"early_stopping_rounds\": null, \"callbacks\": null, \"classes_\": [0.0, 1.0], \"n_classes_\": 2, \"evals_result_\": {\"validation_0\": {\"error\": [0.1617298578199052, 0.15106635071090047, 0.13566350710900474, 0.13151658767772512, 0.1273696682464455, 0.11966824644549763, 0.11492890995260663, 0.10011848341232228, 0.1018957345971564, 0.08767772511848342, 0.08412322274881516, 0.08293838862559241, 0.08175355450236967, 0.07879146919431279, 0.07879146919431279, 0.07760663507109004, 0.07819905213270142, 0.07464454976303317, 0.07345971563981042, 0.06990521327014218, 0.06753554502369669, 0.06516587677725119, 0.06338862559241706, 0.06161137440758294, 0.06161137440758294, 0.06101895734597156, 0.0509478672985782, 0.05035545023696682, 0.04976303317535545, 0.04206161137440758], \"logloss\": [0.6444860764236247, 0.6037151734410869, 0.5665076540438767, 0.5374947184811554, 0.5092288786236426, 0.4846010821478627, 0.46272236257085303, 0.4407512251005212, 0.42304662700689516, 0.405587881909445, 0.39005084306672566, 0.37496290191725534, 0.3650873502389797, 0.35175824103550324, 0.34176951117142684, 0.33091901461660017, 0.3231183067626227, 0.3139955728310403, 0.30409024131012047, 0.2989309578670533, 0.2907105581283181, 0.2844221501311031, 0.2765297561517577, 0.271118608424749, 0.2636499871186453, 0.25651145948900433, 0.25042294697301964, 0.24415434975733194, 0.23957028808690148, 0.23344241008294914], \"aucpr\": [0.8959421086281738, 0.9196963134186031, 0.9457734031157214, 0.9443379569893781, 0.9546156798627433, 0.9547792899273123, 0.9620193859852841, 0.9669068441853678, 0.9704363153942862, 0.9710608915992218, 0.9726969487855653, 0.9727419549590219, 0.9760197791612638, 0.976613910527038, 0.9761691722319102, 0.9783725896452821, 0.9804055530194858, 0.9853704185395666, 0.9855889440056512, 0.9864718401195492, 0.9880511164919888, 0.9899518771528577, 0.9896990969937518, 0.9908373375036722, 0.9908029301683869, 0.9916229746046445, 0.992209596101135, 0.9931414643157288, 0.9935860606903344, 0.9944495889827824]}, \"validation_1\": {\"error\": [0.1702442635085122, 0.16358253145817914, 0.14833456698741673, 0.14152479644707625, 0.14152479644707625, 0.13634344929681716, 0.12864544781643228, 0.11398963730569948, 0.11354552183567727, 0.10377498149518875, 0.10111028867505552, 0.09933382679496669, 0.09888971132494448, 0.09726128793486306, 0.09800148038490007, 0.09740932642487046, 0.09666913397483345, 0.09444855662472243, 0.09459659511472983, 0.09000740192450037, 0.08704663212435233, 0.08645447816432272, 0.08615840118430793, 0.0845299777942265, 0.0842339008142117, 0.08230940044411547, 0.07253886010362694, 0.07209474463360474, 0.07327905255366396, 0.06839378238341969], \"logloss\": [0.6462645161690137, 0.6068778682778625, 0.5707336292498029, 0.5422465700647904, 0.5158570252551934, 0.492330814457928, 0.4705999221473513, 0.4493504583372353, 0.4319260185952543, 0.41593235454058136, 0.40082273751519326, 0.3862407316286241, 0.37726232122924924, 0.36498058693198077, 0.35543230706060663, 0.3456171704785723, 0.3383966433624706, 0.3307585561621816, 0.32141424660039425, 0.3167001783952591, 0.3100250914742512, 0.3054221191173964, 0.29827367882323563, 0.29297027394374064, 0.2858561355088438, 0.28001584563649734, 0.27494024920003624, 0.26897642475523215, 0.2651590353359146, 0.2598659284779599], \"aucpr\": [0.8807506271382267, 0.9098168179221344, 0.9346682049660524, 0.936450221741504, 0.9451877379402343, 0.9451370853052065, 0.95291237731593, 0.9596718673654524, 0.9628292836739559, 0.9632621827156195, 0.9654936081719553, 0.9656567129818244, 0.9685194213726805, 0.9692543027427484, 0.9687836515047616, 0.970147219314023, 0.9720923457942692, 0.976456900950811, 0.9766310497030576, 0.977408240736443, 0.9783393194789991, 0.9800295993944634, 0.9798245756339201, 0.9808717902644479, 0.9809818623836679, 0.9815596787148615, 0.9819707722973549, 0.9837203495497079, 0.9842786315947848, 0.9852849719297679]}}, \"_estimator_type\": \"classifier\"}"},"feature_names":["spread","ticker_1_rets","ticker_2_rets","spread_rets"],"feature_types":["float","float","float","float"],"gradient_booster":{"model":{"gbtree_model_param":{"num_parallel_tree":"1","num_trees":"30","size_leaf_vector":"0"},"tree_info":[0,0,0,0,0,0,0,0,0,0,0,0,0,0,0,0,0,0,0,0,0,0,0,0,0,0,0,0,0,0],"trees":[{"base_weights":[-4.0328603E-2,7.3480666E-1,-9.4668823E-1,-1.0796915E-1,1.6932154E0,-1.7639751E0,-5.9800666E-2,7.5982535E-1,-1.3170732E0,1.0707071E0,1.9180328E0,-9.166667E-1,-1.8848921E0,1.1654676E0,-1.0843374E0],"categories":[],"categories_nodes":[],"categories_segments":[],"categories_sizes":[],"default_left":[1,1,1,1,1,1,1,0,0,0,0,0,0,0,0],"id":0,"left_children":[1,3,5,7,9,11,13,-1,-1,-1,-1,-1,-1,-1,-1],"loss_changes":[2.3587466E2,1.463808E2,1.1206375E2,1.0304067E2,9.807175E0,6.519745E0,9.5727516E1,0E0,0E0,0E0,0E0,0E0,0E0,0E0,0E0],"parents":[2147483647,0,0,1,1,2,2,3,3,4,4,5,5,6,6],"right_children":[2,4,6,8,10,12,14,-1,-1,-1,-1,-1,-1,-1,-1],"split_conditions":[5.3973903E-4,-2.2050955E-3,3.332112E-3,-5.5331285E-3,-7.392635E-4,1.282816E-3,7.1623675E-3,7.598253E-2,-1.3170733E-1,1.0707071E-1,1.9180328E-1,-9.166667E-2,-1.8848921E-1,1.16546765E-1,-1.0843374E-1],"split_indices":[2,1,1,2,1,2,2,0,0,0,0,0,0,0,0],"split_type":[0,0,0,0,0,0,0,0,0,0,0,0,0,0,0],"sum_hessian":[3.3375E2,1.8E2,1.5375E2,9.625E1,8.375E1,7.95E1,7.425E1,5.625E1,4E1,2.375E1,6E1,1.1E1,6.85E1,3.375E1,4.05E1],"tree_param":{"num_deleted":"0","num_feature":"4","num_nodes":"15","size_leaf_vector":"0"}},{"base_weights":[-1.7502995E-2,6.3779855E-1,-7.6660705E-1,-2.0097423E-1,1.5368675E0,-1.6446832E0,6.269679E-2,5.3330845E-1,-1.3099813E0,1.8350433E0,9.9979204E-1,-1.7501473E0,-1.0316001E0,1.605051E0,-6.743232E-1],"categories":[],"categories_nodes":[],"categories_segments":[],"categories_sizes":[],"default_left":[1,1,1,1,1,1,1,0,0,0,0,0,0,0,0],"id":1,"left_children":[1,3,5,7,9,11,13,-1,-1,-1,-1,-1,-1,-1,-1],"loss_changes":[1.6165398E2,1.3278146E2,1.1198701E2,7.542514E1,1.1761719E1,3.022293E0,9.2000244E1,0E0,0E0,0E0,0E0,0E0,0E0,0E0,0E0],"parents":[2147483647,0,0,1,1,2,2,3,3,4,4,5,5,6,6],"right_children":[2,4,6,8,10,12,14,-1,-1,-1,-1,-1,-1,-1,-1],"split_conditions":[4.039495E-4,-2.7535576E-3,2.8887824E-3,-5.5331285E-3,-1.868124E-3,1.914796E-3,4.8956326E-3,5.3330846E-2,-1.3099813E-1,1.8350433E-1,9.997921E-2,-1.7501473E-1,-1.03160016E-1,1.605051E-1,-6.743232E-2],"split_indices":[2,1,1,2,2,1,2,0,0,0,0,0,0,0,0],"split_type":[0,0,0,0,0,0,0,0,0,0,0,0,0,0,0],"sum_hessian":[3.2731256E2,1.7466641E2,1.5264616E2,9.076502E1,8.390139E1,7.3665306E1,7.8980865E1,5.4920692E1,3.584433E1,5.23955E1,3.1505884E1,6.1270702E1,1.23946E1,2.51571E1,5.3823765E1],"tree_param":{"num_deleted":"0","num_feature":"4","num_nodes":"15","size_leaf_vector":"0"}},{"base_weights":[-3.6776576E-2,4.40745E-1,-8.009628E-1,-1.639092E-1,1.4350796E0,-1.4789555E0,2.1094292E-1,4.837271E-1,-1.4690926E0,1.6627488E0,8.9030635E-1,-9.599758E-1,-1.7183695E0,1.5147027E0,-8.879788E-1],"categories":[],"categories_nodes":[],"categories_segments":[],"categories_sizes":[],"default_left":[1,1,1,1,1,1,1,0,0,0,0,0,0,0,0],"id":2,"left_children":[1,3,5,7,9,11,13,-1,-1,-1,-1,-1,-1,-1,-1],"loss_changes":[1.22823364E2,1.24804886E2,8.910322E1,1.1037797E2,8.249863E0,7.99498E0,7.69922E1,0E0,0E0,0E0,0E0,0E0,0E0,0E0,0E0],"parents":[2147483647,0,0,1,1,2,2,3,3,4,4,5,5,6,6],"right_children":[2,4,6,8,10,12,14,-1,-1,-1,-1,-1,-1,-1,-1],"split_conditions":[2.0351056E-3,-8.2431E-4,5.4912586E-3,-3.300202E-3,7.0099995E-5,3.8822605E-3,8.353198E-3,4.8372712E-2,-1.4690927E-1,1.6627489E-1,8.903064E-2,-9.599758E-2,-1.7183696E-1,1.5147027E-1,-8.879788E-2],"split_indices":[2,1,1,2,2,2,2,0,0,0,0,0,0,0,0],"split_type":[0,0,0,0,0,0,0,0,0,0,0,0,0,0,0],"sum_hessian":[3.3461295E2,2.0619186E2,1.2842108E2,1.2874019E2,7.745167E1,7.662175E1,5.179933E1,8.646523E1,4.2274952E1,5.3176277E1,2.4275393E1,2.5769869E1,5.0851883E1,2.3518568E1,2.8280762E1],"tree_param":{"num_deleted":"0","num_feature":"4","num_nodes":"15","size_leaf_vector":"0"}},{"base_weights":[-2.5594542E-2,5.3138363E-1,-6.1026E-1,-9.6906826E-2,1.4146173E0,-1.5190487E0,-3.7210222E-2,4.5781684E-1,-1.1510372E0,1.5861037E0,8.059091E-1,-8.948112E-1,-1.579157E0,1.4867297E0,-4.9946687E-1],"categories":[],"categories_nodes":[],"categories_segments":[],"categories_sizes":[],"default_left":[1,1,1,1,1,1,1,0,0,0,0,0,0,0,0],"id":3,"left_children":[1,3,5,7,9,11,13,-1,-1,-1,-1,-1,-1,-1,-1],"loss_changes":[1.080811E2,9.447361E1,8.425993E1,5.9160744E1,6.104553E0,9.352875E-1,7.141188E1,0E0,0E0,0E0,0E0,0E0,0E0,0E0,0E0],"parents":[2147483647,0,0,1,1,2,2,3,3,4,4,5,5,6,6],"right_children":[2,4,6,8,10,12,14,-1,-1,-1,-1,-1,-1,-1,-1],"split_conditions":[2.76568E-4,-1.879759E-3,1.751627E-3,-4.815939E-3,-8.87902E-4,7.23128E-4,3.2776399E-3,4.5781683E-2,-1.1510372E-1,1.5861037E-1,8.059091E-2,-8.948112E-2,-1.579157E-1,1.4867298E-1,-4.9946688E-2],"split_indices":[2,1,1,2,2,2,2,0,0,0,0,0,0,0,0],"split_type":[0,0,0,0,0,0,0,0,0,0,0,0,0,0,0],"sum_hessian":[3.299018E2,1.6899799E2,1.6090381E2,9.927135E1,6.972663E1,6.1585587E1,9.931822E1,6.54138E1,3.3857548E1,5.3148E1,1.6578634E1,6.8046336E0,5.4780952E1,2.259899E1,7.671923E1],"tree_param":{"num_deleted":"0","num_feature":"4","num_nodes":"15","size_leaf_vector":"0"}},{"base_weights":[-3.0351156E-2,5.110038E-1,-6.267971E-1,-2.9436573E-1,1.1477814E0,-1.352922E0,1.0679009E-2,6.1240077E-1,-1.2662812E0,1.532749E0,4.5807937E-1,-1.5066998E0,-9.359235E-1,1.3619608E0,-4.7620896E-1],"categories":[],"categories_nodes":[],"categories_segments":[],"categories_sizes":[],"default_left":[1,1,1,1,1,1,1,0,0,0,0,0,0,0,0],"id":4,"left_children":[1,3,5,7,9,11,13,-1,-1,-1,-1,-1,-1,-1,-1],"loss_changes":[1.0560714E2,8.8281845E1,7.203682E1,6.8207535E1,2.4779037E1,3.2547607E0,5.581322E1,0E0,0E0,0E0,0E0,0E0,0E0,0E0,0E0],"parents":[2147483647,0,0,1,1,2,2,3,3,4,4,5,5,6,6],"right_children":[2,4,6,8,10,12,14,-1,-1,-1,-1,-1,-1,-1,-1],"split_conditions":[2.76568E-4,-3.7964191E-3,2.8129895E-3,-7.972525E-3,-2.001029E-3,1.025651E-3,4.215281E-3,6.1240077E-2,-1.2662813E-1,1.5327491E-1,4.580794E-2,-1.5066998E-1,-9.359235E-2,1.3619608E-1,-4.7620896E-2],"split_indices":[2,1,1,2,2,1,2,0,0,0,0,0,0,0,0],"split_type":[0,0,0,0,0,0,0,0,0,0,0,0,0,0,0],"sum_hessian":[3.2507755E2,1.7048381E2,1.5459375E2,7.551427E1,9.496954E1,7.174707E1,8.284668E1,3.9257843E1,3.6256424E1,6.016513E1,3.480441E1,5.050791E1,2.1239157E1,2.1468082E1,6.1378597E1],"tree_param":{"num_deleted":"0","num_feature":"4","num_nodes":"15","size_leaf_vector":"0"}},{"base_weights":[-7.4320366E-3,4.499883E-1,-5.382992E-1,-4.079565E-2,1.2438823E0,-1.1442871E0,2.727139E-1,3.8175303E-1,-1.3605372E0,1.4263343E0,6.950721E-1,-3.4121242E-1,-1.3356764E0,1.3163643E0,-6.297812E-1],"categories":[],"categories_nodes":[],"categories_segments":[],"categories_sizes":[],"default_left":[1,1,1,1,1,1,1,0,0,0,0,0,0,0,0],"id":5,"left_children":[1,3,5,7,9,11,13,-1,-1,-1,-1,-1,-1,-1,-1],"loss_changes":[7.782429E1,6.7130516E1,7.321066E1,6.0389088E1,5.5975266E0,1.2622261E1,6.133731E1,0E0,0E0,0E0,0E0,0E0,0E0,0E0,0E0],"parents":[2147483647,0,0,1,1,2,2,3,3,4,4,5,5,6,6],"right_children":[2,4,6,8,10,12,14,-1,-1,-1,-1,-1,-1,-1,-1],"split_conditions":[5.3973903E-4,-1.5812216E-3,4.469276E-3,-3.4485976E-3,-8.66176E-4,1.6142046E-3,7.6441197E-3,3.8175303E-2,-1.3605373E-1,1.4263342E-1,6.950721E-2,-3.412124E-2,-1.3356765E-1,1.3163643E-1,-6.297812E-2],"split_indices":[2,1,1,2,2,2,2,0,0,0,0,0,0,0,0],"split_type":[0,0,0,0,0,0,0,0,0,0,0,0,0,0,0],"sum_hessian":[3.1849197E2,1.7116254E2,1.4732942E2,1.0635974E2,6.48028E1,8.408802E1,6.3241405E1,8.1103226E1,2.5256516E1,4.7434315E1,1.7368488E1,1.6718699E1,6.736932E1,2.911457E1,3.4126835E1],"tree_param":{"num_deleted":"0","num_feature":"4","num_nodes":"15","size_leaf_vector":"0"}},{"base_weights":[-3.424088E-2,3.0253246E-1,-6.206226E-1,-6.528473E-2,1.3257935E0,-1.2788064E0,1.9078103E-1,2.6427507E-1,-1.3243572E0,6.7305404E-1,1.4326591E0,-9.393371E-1,-1.4541363E0,1.4316226E0,-4.9731758E-1],"categories":[],"categories_nodes":[],"categories_segments":[],"categories_sizes":[],"default_left":[1,1,1,1,1,1,1,0,0,0,0,0,0,0,0],"id":6,"left_children":[1,3,5,7,9,11,13,-1,-1,-1,-1,-1,-1,-1,-1],"loss_changes":[6.074216E1,7.3647675E1,6.016032E1,6.0400845E1,2.6438828E0,2.328682E0,4.4357193E1,0E0,0E0,0E0,0E0,0E0,0E0,0E0,0E0],"parents":[2147483647,0,0,1,1,2,2,3,3,4,4,5,5,6,6],"right_children":[2,4,6,8,10,12,14,-1,-1,-1,-1,-1,-1,-1,-1],"split_conditions":[2.376561E-3,8.220615E-4,5.405964E-3,-1.0697965E-3,1.128032E-3,4.43948E-3,7.5104367E-3,2.6427507E-2,-1.3243572E-1,6.730541E-2,1.4326592E-1,-9.393371E-2,-1.4541362E-1,1.4316227E-1,-4.9731757E-2],"split_indices":[2,1,1,2,1,2,2,0,0,0,0,0,0,0,0],"split_type":[0,0,0,0,0,0,0,0,0,0,0,0,0,0,0],"sum_hessian":[3.056392E2,1.9444737E2,1.1119181E2,1.437219E2,5.072548E1,6.1074303E1,5.011751E1,1.1453316E2,2.918873E1,8.163099E0,4.2562378E1,2.2965862E1,3.810844E1,1.7492645E1,3.2624866E1],"tree_param":{"num_deleted":"0","num_feature":"4","num_nodes":"15","size_leaf_vector":"0"}},{"base_weights":[-2.2196133E-2,4.711015E-1,-4.205922E-1,-3.8173252E-1,1.1087958E0,-1.3025715E0,3.463765E-2,4.9727446E-1,-1.3613442E0,1.4215235E0,5.638527E-1,-1.4110178E0,-9.183709E-1,1.1912746E0,-3.5608003E-1],"categories":[],"categories_nodes":[],"categories_segments":[],"categories_sizes":[],"default_left":[1,1,1,1,1,1,1,0,0,0,0,0,0,0,0],"id":7,"left_children":[1,3,5,7,9,11,13,-1,-1,-1,-1,-1,-1,-1,-1],"loss_changes":[6.03038E1,7.4993286E1,6.818915E1,5.1830826E1,1.261203E1,1.1126022E0,5.1453606E1,0E0,0E0,0E0,0E0,0E0,0E0,0E0,0E0],"parents":[2147483647,0,0,1,1,2,2,3,3,4,4,5,5,6,6],"right_children":[2,4,6,8,10,12,14,-1,-1,-1,-1,-1,-1,-1,-1],"split_conditions":[-1.132503E-3,-5.471465E-3,9.2635653E-4,-8.953404E-3,-3.4498374E-3,-1.74764E-4,2.6703775E-3,4.9727447E-2,-1.3613443E-1,1.4215235E-1,5.6385275E-2,-1.4110178E-1,-9.183709E-2,1.1912747E-1,-3.5608005E-2],"split_indices":[2,1,1,2,2,1,2,0,0,0,0,0,0,0,0],"split_type":[0,0,0,0,0,0,0,0,0,0,0,0,0,0,0],"sum_hessian":[3.0483792E2,1.361157E2,1.687222E2,5.840625E1,7.770945E1,5.68049E1,1.119173E2,3.104337E1,2.7362883E1,4.8352646E1,2.9356808E1,4.2216167E1,1.4588733E1,2.7742516E1,8.417478E1],"tree_param":{"num_deleted":"0","num_feature":"4","num_nodes":"15","size_leaf_vector":"0"}},{"base_weights":[-1.6092518E-2,2.6636627E-1,-5.1924115E-1,-8.261207E-2,1.2329876E0,-1.155847E0,2.3800142E-1,2.1841651E-1,-1.2275279E0,7.800654E-1,1.3388075E0,-7.697175E-1,-1.3658732E0,1.0235219E0,-8.5457575E-1],"categories":[],"categories_nodes":[],"categories_segments":[],"categories_sizes":[],"default_left":[1,1,1,1,1,1,1,0,0,0,0,0,0,0,0],"id":8,"left_children":[1,3,5,7,9,11,13,-1,-1,-1,-1,-1,-1,-1,-1],"loss_changes":[4.145381E1,6.3131702E1,5.082534E1,4.790682E1,1.3341522E0,3.5825272E0,4.2690212E1,0E0,0E0,0E0,0E0,0E0,0E0,0E0,0E0],"parents":[2147483647,0,0,1,1,2,2,3,3,4,4,5,5,6,6],"right_children":[2,4,6,8,10,12,14,-1,-1,-1,-1,-1,-1,-1,-1],"split_conditions":[2.4762722E-3,7.8064203E-4,5.4121623E-3,-1.1552415E-3,1.160785E-3,4.43948E-3,1.1645423E-2,2.184165E-2,-1.22752786E-1,7.800654E-2,1.3388075E-1,-7.6971754E-2,-1.3658732E-1,1.02352194E-1,-8.545758E-2],"split_indices":[2,1,1,2,1,2,2,0,0,0,0,0,0,0,0],"split_type":[0,0,0,0,0,0,0,0,0,0,0,0,0,0,0],"sum_hessian":[2.8971115E2,1.8584926E2,1.0386189E2,1.3722249E2,4.8626762E1,5.613957E1,4.7722324E1,1.0929514E2,2.792735E1,1.0794896E1,3.7831867E1,2.142147E1,3.4718098E1,2.7799076E1,1.992325E1],"tree_param":{"num_deleted":"0","num_feature":"4","num_nodes":"15","size_leaf_vector":"0"}},{"base_weights":[-3.483487E-2,3.2888055E-1,-4.2483443E-1,-3.2323933E-1,9.671934E-1,-1.0483774E0,8.640842E-2,3.855698E-1,-1.1724726E0,1.3356032E0,3.141419E-1,-1.269984E0,-6.472488E-1,8.626002E-1,-6.446164E-1],"categories":[],"categories_nodes":[],"categories_segments":[],"categories_sizes":[],"default_left":[1,1,1,1,1,1,1,0,0,0,0,0,0,0,0],"id":9,"left_children":[1,3,5,7,9,11,13,-1,-1,-1,-1,-1,-1,-1,-1],"loss_changes":[4.104496E1,6.265863E1,4.45907E1,4.549987E1,1.7851044E1,4.775215E0,4.4603477E1,0E0,0E0,0E0,0E0,0E0,0E0,0E0,0E0],"parents":[2147483647,0,0,1,1,2,2,3,3,4,4,5,5,6,6],"right_children":[2,4,6,8,10,12,14,-1,-1,-1,-1,-1,-1,-1,-1],"split_conditions":[1.406365E-4,-3.799267E-3,2.784228E-3,-6.9123995E-3,-2.001029E-3,8.32649E-4,7.1623675E-3,3.855698E-2,-1.1724726E-1,1.3356033E-1,3.1414192E-2,-1.2699841E-1,-6.4724885E-2,8.626002E-2,-6.446164E-2],"split_indices":[2,1,1,2,2,1,2,0,0,0,0,0,0,0,0],"split_type":[0,0,0,0,0,0,0,0,0,0,0,0,0,0,0],"sum_hessian":[2.87372E2,1.4877783E2,1.385942E2,7.383715E1,7.494068E1,6.196601E1,7.6628174E1,4.0543587E1,3.329356E1,4.7243664E1,2.7697018E1,3.8519558E1,2.3446455E1,3.707863E1,3.954955E1],"tree_param":{"num_deleted":"0","num_feature":"4","num_nodes":"15","size_leaf_vector":"0"}},{"base_weights":[-1.9028928E-2,3.2622448E-1,-4.0315884E-1,-4.728037E-1,8.2344216E-1,-1.1014094E0,8.0125E-2,2.6517946E-1,-1.4128171E0,1.2817696E0,3.341503E-1,-1.2212828E0,-7.068231E-1,9.86436E-1,-3.7617725E-1],"categories":[],"categories_nodes":[],"categories_segments":[],"categories_sizes":[],"default_left":[1,1,1,1,1,1,1,0,0,0,0,0,0,0,0],"id":10,"left_children":[1,3,5,7,9,11,13,-1,-1,-1,-1,-1,-1,-1,-1],"loss_changes":[3.6566902E1,5.8091766E1,4.4122856E1,3.9463165E1,1.9730736E1,1.6646271E0,3.264811E1,0E0,0E0,0E0,0E0,0E0,0E0,0E0,0E0],"parents":[2147483647,0,0,1,1,2,2,3,3,4,4,5,5,6,6],"right_children":[2,4,6,8,10,12,14,-1,-1,-1,-1,-1,-1,-1,-1],"split_conditions":[7.0099995E-5,-5.577024E-3,2.3255846E-3,-7.972525E-3,-3.43384E-3,1.025651E-3,4.8956326E-3,2.6517946E-2,-1.4128171E-1,1.2817697E-1,3.341503E-2,-1.22128285E-1,-7.068231E-2,9.86436E-2,-3.7617724E-2],"split_indices":[2,1,1,2,2,1,2,0,0,0,0,0,0,0,0],"split_type":[0,0,0,0,0,0,0,0,0,0,0,0,0,0,0],"sum_hessian":[2.7373074E2,1.4423976E2,1.29491E2,5.5346725E1,8.889303E1,5.2442635E1,7.704836E1,3.1407394E1,2.3939333E1,4.506256E1,4.3830467E1,3.8616146E1,1.3826488E1,2.541235E1,5.163601E1],"tree_param":{"num_deleted":"0","num_feature":"4","num_nodes":"15","size_leaf_vector":"0"}},{"base_weights":[-1.6882801E-2,2.4792698E-1,-4.5380422E-1,-1.324794E-1,1.0924344E0,-1.0233698E0,3.4956267E-1,2.5531277E-1,-1.0525273E0,6.4239204E-1,1.2348701E0,-5.3135806E-1,-1.2384555E0,1.4515789E0,-4.0748948E-1],"categories":[],"categories_nodes":[],"categories_segments":[],"categories_sizes":[],"default_left":[1,1,1,1,1,1,1,0,0,0,0,0,0,0,0],"id":11,"left_children":[1,3,5,7,9,11,13,-1,-1,-1,-1,-1,-1,-1,-1],"loss_changes":[3.1253845E1,5.4189835E1,4.699453E1,4.196902E1,2.562687E0,5.6802406E0,3.648938E1,0E0,0E0,0E0,0E0,0E0,0E0,0E0,0E0],"parents":[2147483647,0,0,1,1,2,2,3,3,4,4,5,5,6,6],"right_children":[2,4,6,8,10,12,14,-1,-1,-1,-1,-1,-1,-1,-1],"split_conditions":[2.1431516E-3,-8.02901E-4,5.9701763E-3,-3.33951E-3,8.262075E-4,3.8822605E-3,8.250805E-3,2.5531277E-2,-1.05252735E-1,6.4239204E-2,1.2348701E-1,-5.313581E-2,-1.23845555E-1,1.4515789E-1,-4.074895E-2],"split_indices":[2,1,1,2,1,2,2,0,0,0,0,0,0,0,0],"split_type":[0,0,0,0,0,0,0,0,0,0,0,0,0,0,0],"sum_hessian":[2.6815338E2,1.6723064E2,1.0092275E2,1.1587717E2,5.135347E1,5.8894375E1,4.202838E1,8.20263E1,3.3850872E1,1.3670367E1,3.7683105E1,1.8970205E1,3.992417E1,1.674126E1,2.5287119E1],"tree_param":{"num_deleted":"0","num_feature":"4","num_nodes":"15","size_leaf_vector":"0"}},{"base_weights":[-3.20963E-2,-9.811623E-2,1.2452449E0,1.704974E-1,-6.259417E-1,1.8438768E0,-7.942032E-1,-1.7776094E-1,9.279627E-1,-1.1473259E0,-1.2897079E-1],"categories":[],"categories_nodes":[],"categories_segments":[],"categories_sizes":[],"default_left":[1,1,1,1,1,0,0,0,0,0,0],"id":12,"left_children":[1,3,5,7,9,-1,-1,-1,-1,-1,-1],"loss_changes":[2.2124352E1,3.5411697E1,1.7208055E1,4.3905376E1,2.1668648E1,0E0,0E0,0E0,0E0,0E0,0E0],"parents":[2147483647,0,0,1,1,2,2,3,3,4,4],"right_children":[2,4,6,8,10,-1,-1,-1,-1,-1,-1],"split_conditions":[1.4061527E-2,2.416721E-3,2.6042158E-2,-7.84314E-4,4.2598555E-3,1.8438768E-1,-7.942032E-2,-1.7776094E-2,9.279627E-2,-1.14732586E-1,-1.2897079E-2],"split_indices":[1,2,2,1,1,0,0,0,0,0,0],"split_type":[0,0,0,0,0,0,0,0,0,0,0],"sum_hessian":[2.5990576E2,2.480104E2,1.1895337E1,1.6481303E2,8.319738E1,9.270186E0,2.625151E0,1.1342786E2,5.1385178E1,3.99628E1,4.323458E1],"tree_param":{"num_deleted":"0","num_feature":"4","num_nodes":"11","size_leaf_vector":"0"}},{"base_weights":[-9.036884E-3,3.089173E-1,-3.550942E-1,-3.759701E-1,7.308985E-1,-8.7523437E-1,1.74348E-1,4.3259946E-1,-1.3040173E0,1.200084E0,2.2197428E-1,-2.9744872E-1,-1.0900507E0,7.995067E-1,-6.8393755E-1],"categories":[],"categories_nodes":[],"categories_segments":[],"categories_sizes":[],"default_left":[1,1,1,1,1,1,1,0,0,0,0,0,0,0,0],"id":13,"left_children":[1,3,5,7,9,11,13,-1,-1,-1,-1,-1,-1,-1,-1],"loss_changes":[2.8425877E1,3.919141E1,3.421589E1,3.958148E1,1.9709702E1,7.4407043E0,3.388498E1,0E0,0E0,0E0,0E0,0E0,0E0,0E0,0E0],"parents":[2147483647,0,0,1,1,2,2,3,3,4,4,5,5,6,6],"right_children":[2,4,6,8,10,12,14,-1,-1,-1,-1,-1,-1,-1,-1],"split_conditions":[1.37015E-4,-5.8754273E-3,4.2598555E-3,-9.097118E-3,-3.33951E-3,1.6169905E-3,9.875165E-3,4.3259945E-2,-1.3040173E-1,1.200084E-1,2.219743E-2,-2.9744873E-2,-1.0900507E-1,7.9950675E-2,-6.839376E-2],"split_indices":[2,1,1,2,2,2,2,0,0,0,0,0,0,0,0],"split_type":[0,0,0,0,0,0,0,0,0,0,0,0,0,0,0],"sum_hessian":[2.563488E2,1.3365509E2,1.2269371E2,5.0996067E1,8.265902E1,6.156109E1,6.1132618E1,2.7537569E1,2.3458498E1,4.2302025E1,4.0357E1,1.7331007E1,4.423008E1,3.5409504E1,2.5723118E1],"tree_param":{"num_deleted":"0","num_feature":"4","num_nodes":"15","size_leaf_vector":"0"}},{"base_weights":[-9.9901175E-3,2.8543562E-1,-3.4249547E-1,-1.0219704E-1,1.0223074E0,-1.0628086E0,2.1909557E-2,3.081515E-1,-9.3045115E-1,6.153473E-1,1.1971037E0,-6.0721046E-1,-1.1388359E0,4.9547756E-1,-5.88492E-1],"categories":[],"categories_nodes":[],"categories_segments":[],"categories_sizes":[],"default_left":[1,1,1,1,1,1,1,0,0,0,0,0,0,0,0],"id":14,"left_children":[1,3,5,7,9,11,13,-1,-1,-1,-1,-1,-1,-1,-1],"loss_changes":[2.4666677E1,3.809042E1,3.102998E1,3.021385E1,2.5308533E0,6.837692E-1,2.325007E1,0E0,0E0,0E0,0E0,0E0,0E0,0E0,0E0],"parents":[2147483647,0,0,1,1,2,2,3,3,4,4,5,5,6,6],"right_children":[2,4,6,8,10,12,14,-1,-1,-1,-1,-1,-1,-1,-1],"split_conditions":[1.406365E-4,-1.879759E-3,1.914796E-3,-4.8662024E-3,-4.11404E-4,7.17673E-4,7.6388326E-3,3.0815152E-2,-9.3045115E-2,6.1534733E-2,1.1971038E-1,-6.0721047E-2,-1.1388359E-1,4.9547758E-2,-5.8849197E-2],"split_indices":[2,1,1,2,1,2,2,0,0,0,0,0,0,0,0],"split_type":[0,0,0,0,0,0,0,0,0,0,0,0,0,0,0],"sum_hessian":[2.4911461E2,1.3198743E2,1.1712718E2,8.705389E1,4.4933537E1,3.870437E1,7.842281E1,5.863288E1,2.8421007E1,1.4859069E1,3.0074469E1,6.8202686E0,3.1884098E1,4.426723E1,3.4155582E1],"tree_param":{"num_deleted":"0","num_feature":"4","num_nodes":"15","size_leaf_vector":"0"}},{"base_weights":[4.1044983E-3,3.6425728E-1,-2.4038583E-1,-3.1024075E-1,1.0308876E0,-1.1002018E0,5.0133973E-2,2.8487408E-1,-1.0178558E0,1.0760353E0,-4.4703075E-1,-5.924557E-1,-1.2345701E0,9.7752553E-1,-2.069907E-1],"categories":[],"categories_nodes":[],"categories_segments":[],"categories_sizes":[],"default_left":[1,1,1,1,1,1,1,0,0,0,0,0,0,0,0],"id":15,"left_children":[1,3,5,7,9,11,13,-1,-1,-1,-1,-1,-1,-1,-1],"loss_changes":[2.1429678E1,4.4565983E1,3.6268322E1,2.1211533E1,3.7986717E0,1.7694702E0,2.626924E1,0E0,0E0,0E0,0E0,0E0,0E0,0E0,0E0],"parents":[2147483647,0,0,1,1,2,2,3,3,4,4,5,5,6,6],"right_children":[2,4,6,8,10,12,14,-1,-1,-1,-1,-1,-1,-1,-1],"split_conditions":[-2.2049365E-3,-5.5591725E-3,-7.28811E-4,-9.101795E-3,2.5310585E-1,-1.4315646E-3,1.1907675E-3,2.8487409E-2,-1.0178558E-1,1.0760353E-1,-4.4703078E-2,-5.9245568E-2,-1.23457015E-1,9.7752556E-2,-2.069907E-2],"split_indices":[2,1,1,2,0,2,2,0,0,0,0,0,0,0,0],"split_type":[0,0,0,0,0,0,0,0,0,0,0,0,0,0,0],"sum_hessian":[2.4137569E2,9.7403336E1,1.4397235E2,4.86817E1,4.8721634E1,3.5656666E1,1.0831569E2,2.6767365E1,2.1914335E1,4.7541264E1,1.1803714E0,8.593407E0,2.7063257E1,2.2904064E1,8.541162E1],"tree_param":{"num_deleted":"0","num_feature":"4","num_nodes":"15","size_leaf_vector":"0"}},{"base_weights":[1.32138515E-2,-6.6683054E-2,1.3794241E0,1.5330383E-1,-7.132195E-1,1.9716585E0,-5.2471805E-1,-8.012257E-2,8.5693884E-1,-1.1708586E0,-1.4136614E-1,1.0102019E0,2.2914367E0,2.2039245E-1,-8.869458E-1],"categories":[],"categories_nodes":[],"categories_segments":[],"categories_sizes":[],"default_left":[1,1,1,1,1,1,1,0,0,0,0,0,0,0,0],"id":16,"left_children":[1,3,5,7,9,11,13,-1,-1,-1,-1,-1,-1,-1,-1],"loss_changes":[2.5576456E1,3.1616493E1,1.5632801E1,2.7351326E1,1.4598608E1,7.8562546E-1,1.237528E0,0E0,0E0,0E0,0E0,0E0,0E0,0E0,0E0],"parents":[2147483647,0,0,1,1,2,2,3,3,4,4,5,5,6,6],"right_children":[2,4,6,8,10,12,14,-1,-1,-1,-1,-1,-1,-1,-1],"split_conditions":[1.4061527E-2,3.885718E-3,2.1869529E-2,8.62441E-4,6.075867E-3,7.528681E-3,-2.1906407E-3,-8.012257E-3,8.569389E-2,-1.1708587E-1,-1.4136614E-2,1.01020195E-1,2.2914366E-1,2.2039246E-2,-8.869458E-2],"split_indices":[1,2,2,1,1,2,3,0,0,0,0,0,0,0,0],"split_type":[0,0,0,0,0,0,0,0,0,0,0,0,0,0,0],"sum_hessian":[2.3246841E2,2.2052325E2,1.194516E1,1.6510756E2,5.5415695E1,9.084273E0,2.860887E0,1.2464388E2,4.046368E1,3.0199974E1,2.5215721E1,3.305353E0,5.77892E0,1.0639277E0,1.7969594E0],"tree_param":{"num_deleted":"0","num_feature":"4","num_nodes":"15","size_leaf_vector":"0"}},{"base_weights":[-2.6834609E-2,-8.344419E-1,8.0496624E-2,2.1608266E-1,-1.7641087E0,1.0735456E0,-1.2740463E-1,-1.0156871E0,1.0379435E0,2.52419E-1,1.2480035E0,-1.010868E0,3.299932E-2],"categories":[],"categories_nodes":[],"categories_segments":[],"categories_sizes":[],"default_left":[1,1,1,1,0,1,1,0,0,0,0,0,0],"id":17,"left_children":[1,3,5,7,-1,9,11,-1,-1,-1,-1,-1,-1],"loss_changes":[2.0406782E1,2.735051E1,4.3086517E1,1.5080649E1,0E0,4.8591766E0,2.4537132E1,0E0,0E0,0E0,0E0,0E0,0E0],"parents":[2147483647,0,0,1,1,2,2,3,3,5,5,6,6],"right_children":[2,4,6,8,-1,10,12,-1,-1,-1,-1,-1,-1],"split_conditions":[-1.0680616E-2,-1.4639033E-2,-5.9004165E-3,-2.4413638E-2,-1.7641087E-1,-8.4692575E-3,-3.379806E-3,-1.01568714E-1,1.0379435E-1,2.52419E-2,1.2480035E-1,-1.01086795E-1,3.2999322E-3],"split_indices":[1,2,2,1,0,1,1,0,0,0,0,0,0],"split_type":[0,0,0,0,0,0,0,0,0,0,0,0,0],"sum_hessian":[2.3364772E2,2.6614452E1,2.0703326E2,1.2855403E1,1.375905E1,3.511955E1,1.7191371E2,5.050337E0,7.805066E0,6.5828257E0,2.8536724E1,2.5602083E1,1.4631163E2],"tree_param":{"num_deleted":"0","num_feature":"4","num_nodes":"13","size_leaf_vector":"0"}},{"base_weights":[-1.6215468E-2,2.1436456E-1,-3.9195684E-1,-9.4403274E-2,8.71658E-1,-8.625911E-1,2.0939922E-1,2.4807587E-1,-1.0617077E0,1.1625701E0,4.9876824E-1,-3.67569E-1,-1.2198119E0,9.642236E-1,-8.30309E-1],"categories":[],"categories_nodes":[],"categories_segments":[],"categories_sizes":[],"default_left":[1,1,1,1,1,1,1,0,0,0,0,0,0,0,0],"id":18,"left_children":[1,3,5,7,9,11,13,-1,-1,-1,-1,-1,-1,-1,-1],"loss_changes":[2.0552551E1,2.992696E1,2.5708555E1,3.3708008E1,4.5292816E0,8.533695E0,3.2509914E1,0E0,0E0,0E0,0E0,0E0,0E0,0E0,0E0],"parents":[2147483647,0,0,1,1,2,2,3,3,4,4,5,5,6,6],"right_children":[2,4,6,8,10,12,14,-1,-1,-1,-1,-1,-1,-1,-1],"split_conditions":[1.7761125E-3,-1.0643965E-3,6.075867E-3,-3.300202E-3,-6.189625E-4,4.2107175E-3,1.1645423E-2,2.4807587E-2,-1.0617077E-1,1.1625701E-1,4.9876824E-2,-3.67569E-2,-1.21981196E-1,9.642237E-2,-8.30309E-2],"split_indices":[2,1,1,2,2,2,2,0,0,0,0,0,0,0,0],"split_type":[0,0,0,0,0,0,0,0,0,0,0,0,0,0,0],"sum_hessian":[2.3525224E2,1.4605353E2,8.9198715E1,9.995527E1,4.6098255E1,4.979425E1,3.940447E1,7.436832E1,2.558695E1,2.4705997E1,2.1392258E1,2.1721897E1,2.8072353E1,2.2872046E1,1.6532421E1],"tree_param":{"num_deleted":"0","num_feature":"4","num_nodes":"15","size_leaf_vector":"0"}},{"base_weights":[-2.8133285E-3,-6.0451195E-2,1.4933443E0,7.115454E-2,-9.293511E-1,1.8870666E0,-3.2263005E-1,-4.2231068E-2,1.1616786E0,-1.2629594E0,-1.9157913E-1,6.9537634E-1,2.069412E0],"categories":[],"categories_nodes":[],"categories_segments":[],"categories_sizes":[],"default_left":[1,1,1,1,1,1,0,0,0,0,0,0,0],"id":19,"left_children":[1,3,5,7,9,11,-1,-1,-1,-1,-1,-1,-1],"loss_changes":[1.8988815E1,2.4306793E1,6.4490566E0,2.2927639E1,6.6385517E0,5.1404953E-2,0E0,0E0,0E0,0E0,0E0,0E0,0E0],"parents":[2147483647,0,0,1,1,2,2,3,3,4,4,5,5],"right_children":[2,4,6,8,10,12,-1,-1,-1,-1,-1,-1,-1],"split_conditions":[1.6667351E-2,8.353198E-3,2.828797E-2,6.0665244E-3,1.0301757E-2,7.2350283E-3,-3.2263007E-2,-4.223107E-3,1.1616786E-1,-1.2629594E-1,-1.9157914E-2,6.953763E-2,2.069412E-1],"split_indices":[1,2,2,1,1,2,0,0,0,0,0,0,0],"split_type":[0,0,0,0,0,0,0,0,0,0,0,0,0],"sum_hessian":[2.1815074E2,2.1098247E2,7.1682773E0,1.8402734E2,2.695513E1,5.8588657E0,1.3094116E0,1.6756618E2,1.646117E1,1.8071596E1,8.883533E0,1.4163089E0,4.442557E0],"tree_param":{"num_deleted":"0","num_feature":"4","num_nodes":"13","size_leaf_vector":"0"}},{"base_weights":[6.242519E-4,-7.1047425E-1,1.1612199E-1,4.782564E-1,-1.3875079E0,9.3553567E-1,-1.0362962E-1,-9.2440706E-1,1.3065904E0,-5.5959105E-1,-1.5579363E0,1.0644858E0,-1.8011059E-1,-1.1143928E0,3.6535755E-2],"categories":[],"categories_nodes":[],"categories_segments":[],"categories_sizes":[],"default_left":[1,1,1,1,1,1,1,0,0,0,0,0,0,0,0],"id":20,"left_children":[1,3,5,7,9,11,13,-1,-1,-1,-1,-1,-1,-1,-1],"loss_changes":[1.8001347E1,2.5311342E1,3.4048744E1,1.4983946E1,1.9175644E0,5.942257E0,2.1232033E1,0E0,0E0,0E0,0E0,0E0,0E0,0E0,0E0],"parents":[2147483647,0,0,1,1,2,2,3,3,4,4,5,5,6,6],"right_children":[2,4,6,8,10,12,14,-1,-1,-1,-1,-1,-1,-1,-1],"split_conditions":[-9.335654E-3,-1.6152177E-2,-4.805684E-3,-2.5585383E-2,-1.2599298E-2,9.725633E-2,-3.347283E-3,-9.244071E-2,1.3065904E-1,-5.5959105E-2,-1.5579364E-1,1.0644858E-1,-1.801106E-2,-1.1143928E-1,3.6535754E-3],"split_indices":[1,2,2,1,2,0,1,0,0,0,0,0,0,0,0],"split_type":[0,0,0,0,0,0,0,0,0,0,0,0,0,0,0],"sum_hessian":[2.1717592E2,2.962553E1,1.8755038E2,1.0856815E1,1.8768715E1,3.897235E1,1.4857803E2,3.9879007E0,6.8689146E0,3.9352536E0,1.4833461E1,3.497561E1,3.9967415E0,1.7248045E1,1.3132999E2],"tree_param":{"num_deleted":"0","num_feature":"4","num_nodes":"15","size_leaf_vector":"0"}},{"base_weights":[-3.328024E-2,-8.0000025E-1,7.562281E-2,2.85127E-1,-1.5159602E0,1.2938545E0,-4.8698813E-2,-9.112582E-1,1.1103811E0,-4.1037297E-1,-1.5853534E0,-1.6522889E-1,8.10955E-1],"categories":[],"categories_nodes":[],"categories_segments":[],"categories_sizes":[],"default_left":[1,1,1,1,1,0,1,0,0,0,0,0,0],"id":21,"left_children":[1,3,5,7,9,-1,11,-1,-1,-1,-1,-1,-1],"loss_changes":[1.8285143E1,2.158924E1,2.9146706E1,1.2530886E1,6.203079E-1,0E0,1.7686062E1,0E0,0E0,0E0,0E0,0E0,0E0],"parents":[2147483647,0,0,1,1,2,2,3,3,4,4,6,6],"right_children":[2,4,6,8,10,-1,12,-1,-1,-1,-1,-1,-1],"split_conditions":[-1.0680616E-2,-1.6152177E-2,-9.097118E-3,-2.6370006E-2,-1.0414648E-1,1.2938546E-1,1.0211384E-2,-9.112582E-2,1.1103811E-1,-4.10373E-2,-1.5853535E-1,-1.652289E-2,8.10955E-2],"split_indices":[1,2,2,1,0,0,1,0,0,0,0,0,0],"split_type":[0,0,0,0,0,0,0,0,0,0,0,0,0],"sum_hessian":[2.1726404E2,2.6232315E1,1.9103172E2,1.0666958E1,1.5565357E1,1.681858E1,1.7421315E2,4.311821E0,6.3551373E0,1.3275924E0,1.4237765E1,1.5412814E2,2.0084991E1],"tree_param":{"num_deleted":"0","num_feature":"4","num_nodes":"13","size_leaf_vector":"0"}},{"base_weights":[2.051684E-3,2.1184583E-1,-3.2593882E-1,-5.041547E-2,9.216282E-1,-8.650941E-1,2.3322704E-1,1.9036253E-1,-1.1161411E0,1.1199385E0,4.784989E-1,-4.591247E-1,-1.1118008E0,7.9824466E-1,-6.090535E-1],"categories":[],"categories_nodes":[],"categories_segments":[],"categories_sizes":[],"default_left":[1,1,1,1,1,1,1,0,0,0,0,0,0,0,0],"id":22,"left_children":[1,3,5,7,9,11,13,-1,-1,-1,-1,-1,-1,-1,-1],"loss_changes":[1.5068371E1,2.4906668E1,2.595689E1,2.5479197E1,2.6350918E0,3.8668823E0,2.081881E1,0E0,0E0,0E0,0E0,0E0,0E0,0E0,0E0],"parents":[2147483647,0,0,1,1,2,2,3,3,4,4,5,5,6,6],"right_children":[2,4,6,8,10,12,14,-1,-1,-1,-1,-1,-1,-1,-1],"split_conditions":[1.41037E-3,-8.251775E-4,5.4121623E-3,-1.969106E-3,3.755E-5,3.7431365E-3,1.1645423E-2,1.9036254E-2,-1.1161411E-1,1.1199385E-1,4.784989E-2,-4.591247E-2,-1.1118008E-1,7.982447E-2,-6.090535E-2],"split_indices":[2,1,1,2,2,2,2,0,0,0,0,0,0,0,0],"split_type":[0,0,0,0,0,0,0,0,0,0,0,0,0,0,0],"sum_hessian":[2.1698018E2,1.3255042E2,8.4429756E1,9.746611E1,3.508431E1,4.2705456E1,4.1724297E1,8.0173904E1,1.729221E1,2.3182344E1,1.1901965E1,1.7223785E1,2.548167E1,2.5003656E1,1.6720642E1],"tree_param":{"num_deleted":"0","num_feature":"4","num_nodes":"15","size_leaf_vector":"0"}},{"base_weights":[-1.3920605E-2,-8.627908E-2,9.7936416E-1,8.244399E-2,-7.7705747E-1,1.4973015E0,-4.5628852E-1,-4.6410523E-2,1.1756907E0,-1.1281356E0,-3.590988E-1,-9.7099614E-1,4.193667E-1],"categories":[],"categories_nodes":[],"categories_segments":[],"categories_sizes":[],"default_left":[1,1,1,1,1,0,1,0,0,0,0,0,0],"id":23,"left_children":[1,3,5,7,9,-1,11,-1,-1,-1,-1,-1,-1],"loss_changes":[1.5331476E1,2.3217188E1,1.1454274E1,2.2672794E1,5.3311405E0,0E0,2.4835327E0,0E0,0E0,0E0,0E0,0E0,0E0],"parents":[2147483647,0,0,1,1,2,2,3,3,4,4,6,6],"right_children":[2,4,6,8,10,-1,12,-1,-1,-1,-1,-1,-1],"split_conditions":[1.1989105E-2,4.8670564E-3,2.1446954E-2,3.6832541E-3,5.95588E-3,1.4973015E-1,2.2767633E-2,-4.6410523E-3,1.1756907E-1,-1.12813555E-1,-3.590988E-2,-9.709962E-2,4.193667E-2],"split_indices":[1,2,2,1,1,0,1,0,0,0,0,0,0],"split_type":[0,0,0,0,0,0,0,0,0,0,0,0,0],"sum_hessian":[2.1113904E2,1.9765358E2,1.3485463E1,1.5956128E2,3.8092297E1,9.87863E0,3.6068335E0,1.4359422E2,1.5967053E1,1.9779066E1,1.8313229E1,2.2030232E0,1.4038103E0],"tree_param":{"num_deleted":"0","num_feature":"4","num_nodes":"13","size_leaf_vector":"0"}},{"base_weights":[1.266458E-2,3.1995252E-1,-2.0713861E-1,-9.42577E-2,1.1601032E0,-9.477545E-1,8.7573126E-2,3.086412E-1,-9.8565334E-1,1.2079908E0,3.8681474E-1,-5.0951463E-1,-1.1139426E0,9.1808146E-1,-1.8086857E-1],"categories":[],"categories_nodes":[],"categories_segments":[],"categories_sizes":[],"default_left":[1,1,1,1,1,1,1,0,0,0,0,0,0,0,0],"id":24,"left_children":[1,3,5,7,9,11,13,-1,-1,-1,-1,-1,-1,-1,-1],"loss_changes":[1.4214407E1,3.0644165E1,2.6869946E1,2.1742985E1,6.084633E-1,1.9828682E0,1.9942446E1,0E0,0E0,0E0,0E0,0E0,0E0,0E0,0E0],"parents":[2147483647,0,0,1,1,2,2,3,3,4,4,5,5,6,6],"right_children":[2,4,6,8,10,12,14,-1,-1,-1,-1,-1,-1,-1,-1],"split_conditions":[-2.0409175E-3,-3.512158E-3,7.6292E-4,-6.163659E-3,9.665388E-2,-8.3722896E-4,2.1431516E-3,3.086412E-2,-9.856533E-2,1.2079908E-1,3.8681474E-2,-5.0951462E-2,-1.11394264E-1,9.180815E-2,-1.8086856E-2],"split_indices":[2,1,1,2,0,2,2,0,0,0,0,0,0,0,0],"split_type":[0,0,0,0,0,0,0,0,0,0,0,0,0,0,0],"sum_hessian":[2.0846892E2,8.674399E1,1.2172494E2,5.8694363E1,2.8049623E1,3.401892E1,8.770602E1,4.0873734E1,1.7820625E1,2.5884523E1,2.1650996E0,1.047146E1,2.3547459E1,2.0832897E1,6.687312E1],"tree_param":{"num_deleted":"0","num_feature":"4","num_nodes":"15","size_leaf_vector":"0"}},{"base_weights":[-1.7464526E-2,-5.292657E-1,8.7260775E-2,2.9301938E-1,-1.3267794E0,8.064302E-1,-1.463669E-1,-1.1416614E0,1.005499E0,-1.5316019E0,-8.744608E-1,1.1356803E-1,1.0684606E0,-1.0190809E0,5.6899585E-2],"categories":[],"categories_nodes":[],"categories_segments":[],"categories_sizes":[],"default_left":[1,1,1,1,1,1,1,0,0,0,0,0,0,0,0],"id":25,"left_children":[1,3,5,7,9,11,13,-1,-1,-1,-1,-1,-1,-1,-1],"loss_changes":[1.0687356E1,2.25971E1,2.7953459E1,1.902876E1,2.7015114E-1,7.2815914E0,2.2390646E1,0E0,0E0,0E0,0E0,0E0,0E0,0E0,0E0],"parents":[2147483647,0,0,1,1,2,2,3,3,4,4,5,5,6,6],"right_children":[2,4,6,8,10,12,14,-1,-1,-1,-1,-1,-1,-1,-1],"split_conditions":[-8.451728E-3,-1.25519745E-2,-3.4498374E-3,-2.4413638E-2,-1.0735588E-2,-5.6888787E-3,-1.1337885E-3,-1.1416614E-1,1.005499E-1,-1.531602E-1,-8.7446086E-2,1.1356804E-2,1.0684606E-1,-1.0190809E-1,5.6899586E-3],"split_indices":[1,2,2,1,1,1,1,0,0,0,0,0,0,0,0],"split_type":[0,0,0,0,0,0,0,0,0,0,0,0,0,0,0],"sum_hessian":[1.9753476E2,3.286533E1,1.6466942E2,1.6492817E1,1.6372513E1,3.9776077E1,1.2489335E2,5.272831E0,1.1219987E1,9.627018E0,6.7454953E0,1.1308223E1,2.8467854E1,2.2835747E1,1.020576E2],"tree_param":{"num_deleted":"0","num_feature":"4","num_nodes":"15","size_leaf_vector":"0"}},{"base_weights":[-1.7630026E-2,-6.3842463E-1,6.612512E-2,2.0482019E-1,-1.2515898E0,5.8188796E-1,-1.9900972E-1,-8.7470526E-1,8.2829165E-1,-4.9918634E-1,-1.460458E0,1.683529E-1,1.0891074E0,-9.987022E-1,1.6235057E-2],"categories":[],"categories_nodes":[],"categories_segments":[],"categories_sizes":[],"default_left":[1,1,1,1,1,1,1,0,0,0,0,0,0,0,0],"id":26,"left_children":[1,3,5,7,9,11,13,-1,-1,-1,-1,-1,-1,-1,-1],"loss_changes":[1.0338288E1,1.2476352E1,2.409943E1,7.9999585E0,1.4435291E0,1.2360575E1,2.0083763E1,0E0,0E0,0E0,0E0,0E0,0E0,0E0,0E0],"parents":[2147483647,0,0,1,1,2,2,3,3,4,4,5,5,6,6],"right_children":[2,4,6,8,10,12,14,-1,-1,-1,-1,-1,-1,-1,-1],"split_conditions":[-1.0680616E-2,-1.6152177E-2,-2.2049365E-3,-2.8408844E-2,-1.2599298E-2,-3.7964191E-3,-1.74764E-4,-8.7470524E-2,8.282917E-2,-4.9918633E-2,-1.460458E-1,1.6835291E-2,1.0891074E-1,-9.987023E-2,1.6235057E-3],"split_indices":[1,2,2,1,2,1,1,0,0,0,0,0,0,0,0],"split_type":[0,0,0,0,0,0,0,0,0,0,0,0,0,0,0],"sum_hessian":[1.9702142E2,2.2634153E1,1.7438727E2,9.809614E0,1.2824539E1,5.880333E1,1.1558394E2,3.4438002E0,6.365814E0,3.523139E0,9.3014E0,3.3126923E1,2.5676407E1,2.3740757E1,9.184318E1],"tree_param":{"num_deleted":"0","num_feature":"4","num_nodes":"15","size_leaf_vector":"0"}},{"base_weights":[-8.4780445E-3,2.0500816E-1,-2.4051721E-1,-4.696522E-1,5.3319067E-1,-8.407181E-1,1.12307996E-1,3.5506117E-1,-1.0194815E0,1.1002375E0,2.9027337E-1,-1.0735954E0,-4.5107394E-1,1.1123239E0,-1.8405978E-1],"categories":[],"categories_nodes":[],"categories_segments":[],"categories_sizes":[],"default_left":[1,1,1,1,1,1,1,0,0,0,0,0,0,0,0],"id":27,"left_children":[1,3,5,7,9,11,13,-1,-1,-1,-1,-1,-1,-1,-1],"loss_changes":[9.689835E0,2.2811817E1,1.9939867E1,1.5724016E1,9.187819E0,2.67457E0,1.7957977E1,0E0,0E0,0E0,0E0,0E0,0E0,0E0,0E0],"parents":[2147483647,0,0,1,1,2,2,3,3,4,4,5,5,6,6],"right_children":[2,4,6,8,10,12,14,-1,-1,-1,-1,-1,-1,-1,-1],"split_conditions":[2.6946E-4,-7.517352E-3,2.8887824E-3,-1.465259E-2,-5.960327E-3,1.1312349E-3,4.215281E-3,3.5506118E-2,-1.0194816E-1,1.1002375E-1,2.9027337E-2,-1.0735954E-1,-4.5107394E-2,1.1123239E-1,-1.840598E-2],"split_indices":[2,1,1,0,2,1,2,0,0,0,0,0,0,0,0],"split_type":[0,0,0,0,0,0,0,0,0,0,0,0,0,0,0],"sum_hessian":[1.9361201E2,1.0089796E2,9.271405E1,3.2878006E1,6.801995E1,3.3812256E1,5.8901794E1,1.3293192E1,1.9584814E1,1.9341478E1,4.867847E1,2.0064844E1,1.3747411E1,1.2836199E1,4.6065598E1],"tree_param":{"num_deleted":"0","num_feature":"4","num_nodes":"15","size_leaf_vector":"0"}},{"base_weights":[-3.3948787E-2,-1.0928153E-1,1.1859659E0,2.7483964E-2,-8.378577E-1,1.5089821E0,-7.3828024E-1,-1.0668932E-1,9.882624E-1,-1.2131444E0,-1.0313615E-1,2.7560905E-1,1.625163E0],"categories":[],"categories_nodes":[],"categories_segments":[],"categories_sizes":[],"default_left":[1,1,1,1,1,1,0,0,0,0,0,0,0],"id":28,"left_children":[1,3,5,7,9,11,-1,-1,-1,-1,-1,-1,-1],"loss_changes":[1.762613E1,1.7981888E1,8.049128E0,1.9791834E1,7.7378426E0,9.681587E-1,0E0,0E0,0E0,0E0,0E0,0E0,0E0],"parents":[2147483647,0,0,1,1,2,2,3,3,4,4,5,5],"right_children":[2,4,6,8,10,12,-1,-1,-1,-1,-1,-1,-1],"split_conditions":[1.4061527E-2,7.146974E-3,3.6360525E-2,4.4247843E-3,9.953568E-3,-1.3481545E-1,-7.382803E-2,-1.0668932E-2,9.8826244E-2,-1.2131444E-1,-1.0313615E-2,2.7560905E-2,1.625163E-1],"split_indices":[1,2,2,1,1,0,0,0,0,0,0,0,0],"split_type":[0,0,0,0,0,0,0,0,0,0,0,0,0],"sum_hessian":[1.8938756E2,1.7923009E2,1.0157482E1,1.5171332E2,2.751676E1,8.882256E0,1.2752261E0,1.339027E2,1.7810635E1,1.778251E1,9.734248E0,1.0549691E0,7.8272867E0],"tree_param":{"num_deleted":"0","num_feature":"4","num_nodes":"13","size_leaf_vector":"0"}},{"base_weights":[-1.0195859E-2,1.5778418E-1,-3.2455575E-1,4.6053892E-1,-3.7861148E-1,-6.506248E-1,5.042121E-1,3.0467543E-1,1.1099548E0,-8.583356E-1,3.142754E-1,-3.3377016E-1,-1.165777E0,1.289935E0,-4.1623554E-1],"categories":[],"categories_nodes":[],"categories_segments":[],"categories_sizes":[],"default_left":[1,1,1,1,1,1,1,0,0,0,0,0,0,0,0],"id":29,"left_children":[1,3,5,7,9,11,13,-1,-1,-1,-1,-1,-1,-1,-1],"loss_changes":[1.0053002E1,2.0330349E1,1.8241879E1,7.737953E0,1.5336631E1,7.4473877E0,1.4480777E1,0E0,0E0,0E0,0E0,0E0,0E0,0E0,0E0],"parents":[2147483647,0,0,1,1,2,2,3,3,4,4,5,5,6,6],"right_children":[2,4,6,8,10,12,14,-1,-1,-1,-1,-1,-1,-1,-1],"split_conditions":[2.7458125E-3,2.9559698E-2,1.02382675E-2,1.128032E-3,-2.2522635E-3,7.542119E-3,1.4229832E-2,3.0467544E-2,1.1099549E-1,-8.5833564E-2,3.1427544E-2,-3.3377018E-2,-1.165777E-1,1.289935E-1,-4.1623555E-2],"split_indices":[2,0,1,1,1,2,2,0,0,0,0,0,0,0,0],"split_type":[0,0,0,0,0,0,0,0,0,0,0,0,0,0,0],"sum_hessian":[1.8840569E2,1.23116005E2,6.528967E1,7.878772E1,4.4328285E1,4.7009346E1,1.828033E1,6.472299E1,1.406473E1,2.6052149E1,1.8276134E1,3.0127022E1,1.6882322E1,9.645343E0,8.634989E0],"tree_param":{"num_deleted":"0","num_feature":"4","num_nodes":"15","size_leaf_vector":"0"}}]},"name":"gbtree"},"learner_model_param":{"base_score":"5E-1","boost_from_average":"1","num_class":"0","num_feature":"4","num_target":"1"},"objective":{"name":"binary:logistic","reg_loss_param":{"scale_pos_weight":"1"}}},"version":[1,7,4]}